
// Expects input to be a Vol object
// Returns the probability distribution of 

var data = '{"layers":[{"out_depth":3,"out_sx":32,"out_sy":32,"layer_type":"input"},{"sx":5,"sy":5,"stride":1,"in_depth":3,"out_depth":16,"out_sx":32,"out_sy":32,"layer_type":"conv","l1_decay_mul":0,"l2_decay_mul":1,"pad":2,"filters":[{"sx":5,"sy":5,"depth":3,"w":{"0":0.21815248182533872,"1":0.04428262159985607,"2":-0.15109778269654714,"3":-0.08260130669489475,"4":-0.19253455012847429,"5":-0.01591464909738039,"6":0.11907740831630167,"7":-0.0983703410340797,"8":-0.00680323686368176,"9":0.17078324997520142,"10":-0.2841746507535044,"11":-0.021331744068684544,"12":0.10226020128144216,"13":0.23271420178991536,"14":-0.1694111013000608,"15":-0.08833847666027096,"16":-0.22681178623940612,"17":0.1435971598479796,"18":0.12000382307925996,"19":0.005968430960500244,"20":-0.28051975147577957,"21":0.008619586071292736,"22":-0.3099540114661363,"23":-0.04126937612596103,"24":0.06486464604028584,"25":0.23127231558154873,"26":-0.08142721445533957,"27":0.31106886725853006,"28":-0.17688707813787788,"29":0.014228101454543566,"30":0.006166564199961637,"31":-0.24763045751138735,"32":-0.11513997548457923,"33":-0.047419785279546246,"34":-0.021362582145238826,"35":-0.006082488193010289,"36":0.0627994234167192,"37":-0.052748928207360136,"38":0.12975265360610383,"39":0.12984793551287782,"40":0.06360672670936787,"41":-0.027827548862067706,"42":0.1321901558038157,"43":-0.021169102332558053,"44":0.1063579909689284,"45":-0.1764482068346066,"46":-0.12494939712910223,"47":-0.21815139092373095,"48":0.059549465049254825,"49":-0.15551937604018404,"50":-0.04728564493190513,"51":-0.14854619545081588,"52":0.08592995930746798,"53":0.03618392674557142,"54":0.001577955069698904,"55":0.11031987832940933,"56":0.087469048253165,"57":-0.025226922361386614,"58":-0.00961019421979844,"59":0.15817921516905048,"60":-0.06276224621638762,"61":0.003090891322184078,"62":0.052171993000703916,"63":-0.06950733987965994,"64":0.05899978973728144,"65":0.03344755191707141,"66":-0.1322205969683872,"67":0.13121725671148476,"68":0.030627253202238622,"69":-0.030498544745563894,"70":0.16309741779195466,"71":0.04840047140343206,"72":-0.040449650090266104,"73":0.15495044735335162,"74":-0.1049796304052047}},{"sx":5,"sy":5,"depth":3,"w":{"0":0.11517581261342792,"1":-0.07006344914260881,"2":0.1093963806128068,"3":0.06321987671367575,"4":-0.03445646431910975,"5":-0.12193548649959882,"6":0.10140928129948046,"7":-0.10331871412563871,"8":-0.010670372626166644,"9":-0.024355821860168797,"10":0.0559675500536935,"11":-0.05286144712386157,"12":0.13242300549463937,"13":0.047108103500515634,"14":0.054553690197515575,"15":-0.11548380031329823,"16":0.19201535656294275,"17":0.07778994911126834,"18":-0.10804698384786754,"19":-0.00434191592583761,"20":0.010736510502657542,"21":0.005354166842976981,"22":-0.14037993568413784,"23":0.05706031116086344,"24":-0.0603780035236081,"25":0.023104327796345362,"26":0.018574919660698963,"27":-0.151905306361113,"28":0.03426029526383511,"29":-0.02397340249572273,"30":-0.15006159275529346,"31":-0.04196840337500814,"32":-0.041670459700220826,"33":0.07174891382920208,"34":0.04859872740276882,"35":-0.07645392393315921,"36":-0.12068209173375614,"37":-0.0617978213919352,"38":0.09339011574386165,"39":0.03207984535807044,"40":0.26629454544488884,"41":-0.1751574895379125,"42":0.008383711911991188,"43":0.061745917566554946,"44":-0.0441525528415559,"45":0.033309265668512576,"46":0.15665870579704674,"47":0.09527781734532627,"48":-0.09858134332050957,"49":-0.19618329540542365,"50":-0.21368687367870742,"51":-0.07543902578935704,"52":-0.11576724565376463,"53":0.12942749127811076,"54":-0.16535999235215992,"55":0.17652235799412727,"56":-0.06777083932280387,"57":-0.0014301150453258555,"58":0.14232690052204328,"59":0.05178139732954633,"60":0.06125064004638285,"61":0.01097581062708949,"62":0.0926550598452911,"63":-0.12809415030455001,"64":0.07717262668810439,"65":0.09488975689311725,"66":0.046902930737235296,"67":0.19833527930711153,"68":-0.1881865739056409,"69":0.02760082986275462,"70":0.15110232555116498,"71":-0.13649909109964545,"72":0.0954642613241342,"73":0.03895410155799773,"74":-0.03055348270394075}},{"sx":5,"sy":5,"depth":3,"w":{"0":0.035906932479483275,"1":0.1794405433746275,"2":0.18746073699112056,"3":-0.01187725237018639,"4":-0.005374052085864127,"5":0.03807469693167713,"6":-0.08882427147894788,"7":-0.0032041771438460244,"8":0.05339163792320233,"9":-0.051395415079976456,"10":0.1472906694803759,"11":0.2188414048549617,"12":-0.13252181230250973,"13":-0.05566070099943126,"14":0.07830729402337228,"15":0.14816450733081923,"16":-0.005357314567801317,"17":0.09574181293212265,"18":-0.011923591041804966,"19":-0.0481722039471097,"20":0.23262703866971532,"21":-0.021061883452084963,"22":0.1665764929628216,"23":0.08795433962985687,"24":0.0715148919404082,"25":0.1656759336762328,"26":0.04225017963065644,"27":-0.08400082713821656,"28":-0.03943515145009776,"29":0.15253567984884625,"30":-0.33916078601744676,"31":0.10504498837224766,"32":0.1443932699400058,"33":-0.014212979908680713,"34":0.26638653585615213,"35":-0.15907356795410732,"36":0.023700200654962904,"37":0.0056695079020390405,"38":0.23582005785155277,"39":-0.12984233253722818,"40":0.04082555695714508,"41":0.08948531372980441,"42":0.016385229590985182,"43":0.030331438143058616,"44":-0.06645307268134283,"45":-0.3618902276203009,"46":0.0700690593368781,"47":0.0350295045009292,"48":-0.09930101097841507,"49":0.24666406243840072,"50":0.11679772474165631,"51":-0.10125540257161984,"52":-0.04907196859219014,"53":0.0169623485129698,"54":0.07568806701031919,"55":-0.01112329606118632,"56":-0.00378683234530918,"57":0.04364505174216274,"58":-0.03576589759670138,"59":0.12343279931618754,"60":-0.11616547432764847,"61":-0.25557112954140804,"62":-0.07091861537410671,"63":-0.21625999605111795,"64":-0.1790217564858976,"65":-0.1527153774992064,"66":-0.1774302189852516,"67":-0.14039150749828092,"68":-0.09727203798069006,"69":-0.1638001711960715,"70":-0.0021817221738043143,"71":-0.20258377197541508,"72":-0.2365180225345139,"73":-0.026780863289898305,"74":-0.006114547330548063}},{"sx":5,"sy":5,"depth":3,"w":{"0":-0.1207681137111663,"1":-0.15721533795271989,"2":0.11905712909519423,"3":-0.3067275593204963,"4":-0.26504281417657555,"5":-0.03825065604168422,"6":0.16832994134494725,"7":-0.18568396066770476,"8":0.05306171691688554,"9":0.0926868177370502,"10":-0.08119260791751928,"11":-0.005405057121978871,"12":0.014985794028360519,"13":-0.0792157572718147,"14":0.03314550221865132,"15":-0.140247679705023,"16":-0.08291335331039582,"17":0.025818778947852263,"18":0.027998304064819554,"19":-0.01596368084149965,"20":0.15100276885051667,"21":-0.08401915935960134,"22":-0.05001831835964492,"23":-0.01226424073729968,"24":-0.32753844468767723,"25":0.02009466215687359,"26":0.12316082111930239,"27":-0.12582004485028703,"28":-0.19875334646878526,"29":-0.18767826734255236,"30":0.1350977882530239,"31":0.10611458478706838,"32":0.1439086898836189,"33":-0.06516253751203163,"34":-0.018650816607904724,"35":0.4276165808367921,"36":-0.11422716563681579,"37":-0.11010237227243137,"38":0.23472043576432408,"39":-0.09651779939165323,"40":0.12375890604836294,"41":0.23030966352414767,"42":0.09946581204645902,"43":-0.028616652584830156,"44":0.335990920980596,"45":-0.1701870386838429,"46":-0.2509877715668085,"47":0.28987986309892705,"48":-0.09355519775992895,"49":0.07855915230692935,"50":0.1353769184124417,"51":0.1122298018812166,"52":-0.0014482136415569645,"53":0.21995536702542925,"54":0.020352174588855597,"55":0.12423175692589171,"56":0.1388536420279789,"57":-0.1295710280492888,"58":0.05806760913311779,"59":0.47844368954441024,"60":-0.12631129968560734,"61":-0.1837031307644014,"62":0.19966916402342555,"63":-0.3443641490024432,"64":-0.11642326329296364,"65":0.035941035556907606,"66":0.03037033932012122,"67":-0.1481702318203033,"68":0.0443979626298557,"69":0.07976730437086517,"70":-0.2757622017350179,"71":-0.05561041266965102,"72":-0.011847205807432388,"73":-0.14850815711894244,"74":-0.048094315252152096}},{"sx":5,"sy":5,"depth":3,"w":{"0":-0.133103369177422,"1":0.04778279572392425,"2":0.05373764382248466,"3":0.07827012214116114,"4":-0.003088156608873181,"5":0.11132890890428351,"6":-0.10734132971687098,"7":0.13091786180637624,"8":-0.010989372466954323,"9":-0.05241124420411343,"10":0.014818383997913073,"11":-0.13431165112427979,"12":-0.037799297648808086,"13":0.16895832953747297,"14":-0.1908799071950066,"15":-0.23097375553937344,"16":-0.042572274852392435,"17":-0.09144913612698469,"18":-0.1810562907965535,"19":0.1970007448709275,"20":-0.18971957607631643,"21":-0.0473936702442109,"22":0.11887420693091699,"23":-0.2190048046148406,"24":-0.17717685934791894,"25":0.30148977734514903,"26":-0.04857258810712092,"27":-0.08552761633457169,"28":0.2443564511808838,"29":-0.0562430878279185,"30":-0.09239746393578356,"31":0.07104506885850992,"32":0.014459538643550877,"33":-0.020497771362916632,"34":0.12739172132208101,"35":-0.20220729348869457,"36":-0.041213159367914025,"37":-0.07413802989062203,"38":0.06510988501451043,"39":0.16476164472612498,"40":0.3092871265664331,"41":0.1717968610682007,"42":-0.005837747307707981,"43":-0.13841369828648734,"44":0.1093904792404058,"45":-0.2306535530789241,"46":0.03251350440725557,"47":-0.029321361089843272,"48":0.052960704992037436,"49":-0.06380796505550652,"50":-0.24883958035826606,"51":0.03672977584356025,"52":-0.09306428304391036,"53":-0.17177294383218059,"54":0.04031927508324615,"55":0.1463461658025119,"56":0.1304330356649838,"57":-0.13468041333212377,"58":0.049067091905357324,"59":-0.16439534776356726,"60":-0.0762252933961883,"61":0.15043906510472843,"62":-0.09909798939653955,"63":0.0446799153971582,"64":0.2633466346417414,"65":-0.07387778853209799,"66":-0.010605756545179111,"67":0.17343536225991804,"68":0.013669766853136535,"69":-0.25711929851907284,"70":0.12822613239161573,"71":-0.15362232105374277,"72":-0.009158394043175814,"73":0.2407354981977412,"74":-0.03934905219747211}},{"sx":5,"sy":5,"depth":3,"w":{"0":0.04746947394874496,"1":-0.12320070609757858,"2":-0.12278168525935881,"3":0.024935673571544678,"4":-0.32060157503533343,"5":-0.21715793750036527,"6":-0.02076981624603242,"7":-0.13596931218648609,"8":-0.1177578480602513,"9":-0.025818473579380927,"10":0.09760568236769544,"11":0.002439172041040119,"12":0.15570704361527749,"13":0.06574546291000535,"14":0.24255116355122774,"15":0.296552037643992,"16":-0.15038157736341087,"17":-0.2168179182001321,"18":-0.2947013103106979,"19":-0.1510549279998779,"20":0.07220679154244575,"21":0.07467068737166734,"22":0.049661710325093984,"23":-0.18846730266177655,"24":0.24713105882947387,"25":-0.01850329544076305,"26":0.05771801756370459,"27":0.1994550723531692,"28":-0.1296493371815521,"29":-0.02551117823890007,"30":-0.16461833145678378,"31":-0.12132126429421164,"32":-0.046813446076462116,"33":-0.23223691422356058,"34":-0.047385708704585756,"35":0.0913229108331716,"36":0.09703055183720348,"37":-0.07750809693694055,"38":0.0038297254869209783,"39":0.2358682469085036,"40":0.08953536851219313,"41":0.29064304395642576,"42":-0.09171122047727286,"43":0.004269969550007522,"44":0.14185091888388435,"45":0.0426113086237845,"46":-0.11684302274644856,"47":0.008938104449983051,"48":-0.05389119982182705,"49":0.09137700847292507,"50":-0.04894437336654385,"51":-0.09330513019216,"52":-0.05772746865093247,"53":0.23452752363327764,"54":-0.05219645376692845,"55":0.027908134297675937,"56":0.19579474728402957,"57":0.13545325036280995,"58":0.018056484423972126,"59":0.24731417286417065,"60":-0.040542341262834576,"61":0.09703816152353212,"62":0.153853732911099,"63":0.0085239168512906,"64":-0.055598345111489936,"65":0.1590222126252356,"66":0.03720411378405363,"67":-0.13230537683245763,"68":-0.05281216764885469,"69":0.23889448731303284,"70":-0.023884108721108216,"71":0.11906445962870822,"72":-0.02660389886863097,"73":0.08628624377430272,"74":0.17744653019395087}},{"sx":5,"sy":5,"depth":3,"w":{"0":-0.1239502590047374,"1":-0.020450362624082046,"2":0.15225372130143272,"3":-0.07309440867700656,"4":-0.09676107995401646,"5":-0.05500093850920694,"6":-0.03439831151738126,"7":-0.07782816382387087,"8":0.2548985067338855,"9":-0.13049249755311532,"10":0.004864210466179703,"11":-0.07787284928839021,"12":-0.11839024812729569,"13":0.06180107557934748,"14":0.16417667234466227,"15":-0.37535022467390666,"16":0.08009780539046284,"17":0.04958997380198419,"18":-0.10483617786694278,"19":-0.08163829915609644,"20":0.15681042365642062,"21":-0.13144190867938277,"22":-0.07458507835680042,"23":-0.052052867818413895,"24":-0.16427216723379587,"25":0.050741512041361424,"26":-0.01288666675162036,"27":-0.36207911124768755,"28":-0.08429779388536933,"29":-0.00117252256284046,"30":-0.09171497631884941,"31":-0.26099580447754894,"32":0.1649909555772226,"33":-0.30238693914067394,"34":0.09094190832707037,"35":-0.09170627533029163,"36":-0.11579464064546935,"37":-0.12408468465975317,"38":-0.05498483377111736,"39":-0.06382614662681682,"40":-0.10406032313826645,"41":0.06580605330719712,"42":-0.3285754155893771,"43":-0.05389957778659842,"44":-0.06272088338662712,"45":-0.0017171572854653278,"46":-0.0611660879364812,"47":0.15332023526334704,"48":0.03801476281295445,"49":0.15076186650604623,"50":0.12479730910003861,"51":-0.13878536144935066,"52":-0.12240466437401605,"53":0.22648287223127458,"54":0.0004835658654170852,"55":-0.13684129441660828,"56":0.057110816161549005,"57":0.23730955565191972,"58":-0.019795775443035034,"59":0.251564519553881,"60":-0.008040808938586008,"61":0.06748517650576476,"62":0.12200801992195957,"63":0.11892886275065918,"64":0.03701035450618637,"65":0.15719144266696067,"66":0.12845517230898337,"67":0.4274344542855391,"68":0.19303433030387682,"69":-0.013927134200878821,"70":0.20021319961445883,"71":0.21976509990038579,"72":0.23159344949538618,"73":0.14411685740352465,"74":0.1351844193368974}},{"sx":5,"sy":5,"depth":3,"w":{"0":-0.08009499047180854,"1":0.11738278011799418,"2":0.21349333630053716,"3":-0.1360508099973502,"4":0.1536791136170717,"5":0.013279729704061414,"6":-0.036754587385806704,"7":0.17387287726721717,"8":0.14248790833330796,"9":-0.20502079033139062,"10":-0.01918410108119986,"11":-0.18986831396204323,"12":-0.006400394784548276,"13":-0.006591897837199788,"14":-0.11028433044064095,"15":-0.10520665266238106,"16":0.10867001118952568,"17":0.15695153753354948,"18":0.05979462413594016,"19":-0.056047632263431846,"20":-0.050334721083668175,"21":0.21008367235435638,"22":0.12763785833851887,"23":0.07928262450678814,"24":0.035372709198795704,"25":0.007412273666537137,"26":-0.11997364268501652,"27":-0.04465535611053876,"28":-0.06572740100683837,"29":-0.0833578193938885,"30":-0.1598538502826535,"31":-0.06436281924213941,"32":-0.012623598854476205,"33":-0.09886485838070058,"34":0.1907335020205817,"35":-0.21827856518190483,"36":0.12467239769860483,"37":0.1460695817647088,"38":-0.01056210160383974,"39":-0.1265546842438131,"40":0.11356384807339445,"41":-0.010074892139189981,"42":0.05259091508269832,"43":-0.1623336548479768,"44":-0.09035928864176783,"45":0.1194598014105682,"46":0.12624319384603325,"47":-0.07604845266896952,"48":-0.0605913101923437,"49":0.45300451501203104,"50":-0.0053730977836843555,"51":-0.007868614182180794,"52":0.15054214742490152,"53":-0.04310385400981041,"54":0.07357700880728915,"55":0.06248210147076682,"56":-0.09140065957776869,"57":-0.16492602747838378,"58":-0.09571303296443509,"59":-0.20873988183793826,"60":0.05100519063344169,"61":0.2992531521877963,"62":-0.027696898080638868,"63":-0.058966183042554535,"64":-0.06055259701240523,"65":-0.05466385631671837,"66":-0.11791764910813952,"67":-0.02213326997991881,"68":0.10735998500429247,"69":-0.0850846579345861,"70":0.34549724100092627,"71":-0.06312770262278325,"72":0.02812768356702429,"73":0.19505765994068325,"74":0.047834700849689105}},{"sx":5,"sy":5,"depth":3,"w":{"0":-0.05951057574206337,"1":-0.010561717358764983,"2":0.1643776969555672,"3":-0.006771032796089842,"4":-0.02931156055164907,"5":0.21316748670343377,"6":0.023716872882805308,"7":0.025335633567222886,"8":0.06169131473871948,"9":0.1053063802269674,"10":0.17603719864651518,"11":0.19792315111864778,"12":-0.018282551218307647,"13":0.04864525962664658,"14":0.24240708727826854,"15":-0.09612306702068842,"16":0.06557158584893073,"17":0.10093288131284663,"18":-0.2413798575750232,"19":0.0032496669353590133,"20":0.1985631628766033,"21":-0.1940757492515191,"22":0.1079394048489623,"23":0.20675582834534278,"24":-0.006727306679990012,"25":-0.06914484409725097,"26":0.06456190783343707,"27":0.010010447790527878,"28":-0.03649328042026353,"29":0.21487845035078737,"30":-0.15093363353826053,"31":-0.06063284060816984,"32":0.1312226618563478,"33":-0.004150053577848471,"34":-0.04351096894655114,"35":-0.15860246817487653,"36":0.026961659777343355,"37":-0.18920380217807328,"38":0.17858162312281883,"39":-0.18951543808435514,"40":0.01470107770780708,"41":0.007971544259059589,"42":-0.1572644799231,"43":-0.2450049281297847,"44":0.0738855954688725,"45":-0.1440650409512933,"46":-0.08293000171617798,"47":0.16889477250601742,"48":-0.32272097247227083,"49":-0.13866157204203047,"50":0.08280711424681164,"51":-0.2380376740560812,"52":-0.02331288616181224,"53":0.06040474674834641,"54":-0.05349094555573667,"55":-0.1721337341359416,"56":-0.06123772416198074,"57":-0.06302473878099929,"58":-0.0844878117799734,"59":0.23969213124201613,"60":-0.020308593955042982,"61":-0.2877619345707821,"62":0.15138113621837573,"63":0.0623539633345451,"64":0.137683073162346,"65":0.1027698822021282,"66":0.029663974530975083,"67":0.132667219672738,"68":0.05933288707100886,"69":-0.030983123765880315,"70":-0.006278918690421745,"71":0.2939771566694165,"72":-0.14721829292625904,"73":-0.030182725791380403,"74":0.11920700964172308}},{"sx":5,"sy":5,"depth":3,"w":{"0":-0.2026318564847017,"1":-0.013652969862093795,"2":-0.18339277177904778,"3":-0.09143658776779102,"4":0.01421555675335408,"5":0.07715717911546424,"6":-0.24322044681130134,"7":-0.09376298644808617,"8":0.0339943717588911,"9":-0.23404299244278226,"10":0.00872760557457001,"11":0.11466954837390592,"12":-0.10802554149905996,"13":-0.14162969384152665,"14":-0.06814790825145872,"15":-0.059442626618293845,"16":-0.0888458769022887,"17":0.07257574489525548,"18":0.06437653258042927,"19":-0.26085221987286566,"20":0.18187702751589516,"21":-0.30170708313758904,"22":-0.07865029810748103,"23":0.045375995189177086,"24":-0.051222904047797745,"25":-0.006549950950999446,"26":-0.057644412180755875,"27":0.019441906877582116,"28":-0.032666271722908286,"29":0.06244766604108538,"30":0.03399235872759402,"31":0.06607180157015777,"32":0.23276607271637204,"33":-0.008838000120989713,"34":0.20628399694684033,"35":-0.043933889233749704,"36":0.1298045776582291,"37":0.10763913828144044,"38":0.2788333373679653,"39":-0.17499231206020763,"40":0.02984764607695544,"41":0.27513655476346277,"42":-0.09824912323611816,"43":0.00816096092613448,"44":0.07344753574422849,"45":-0.07922459550697261,"46":0.10568542815180797,"47":0.045776103662791494,"48":0.12719141064924191,"49":-0.004495443713034093,"50":-0.03891751586777966,"51":0.10838910082583807,"52":0.016346363227167583,"53":0.1591569744750217,"54":-0.18220543619723956,"55":-0.05420136458852248,"56":0.11207832101950826,"57":0.1656775271586413,"58":-0.06617535653584855,"59":0.17138961865622468,"60":-0.02974482512750415,"61":-0.10459600809020801,"62":-0.010568438632959825,"63":0.040941112644046644,"64":-0.24286690727832985,"65":-0.03914300815483064,"66":-0.16497345942476038,"67":-0.12560649421040432,"68":0.1485611888426216,"69":-0.16507946418442462,"70":-0.09024662315117898,"71":0.2560685620640054,"72":-0.08760830433919194,"73":-0.041421748400508024,"74":0.1619370123380223}},{"sx":5,"sy":5,"depth":3,"w":{"0":0.012260183341926639,"1":0.08290727985131245,"2":0.0009688492307982567,"3":-0.18592910002037888,"4":0.004119318777473074,"5":-0.012531926126750461,"6":0.04618879901931758,"7":0.050151846014231734,"8":0.05583556325974957,"9":-0.04729650725061516,"10":-0.1326411383855923,"11":0.08122070796546497,"12":0.09026897182537011,"13":-0.2186982527642719,"14":-0.08497883267729466,"15":0.23025820803599223,"16":0.2738390081658985,"17":0.016285428255162052,"18":-0.0019628272481279543,"19":0.20707765284223012,"20":-0.04638527787727655,"21":-0.09121778003166844,"22":-0.09069094824475753,"23":-0.14375291664035528,"24":-0.26463151225412945,"25":-0.2023731402151827,"26":-0.21895527962973826,"27":0.05816903376817108,"28":0.02688776049596703,"29":-0.11109823515049048,"30":0.25309185198797157,"31":0.03605237102604422,"32":0.13620104903637698,"33":-0.23511514641853903,"34":0.1852892264492716,"35":0.09953839563822073,"36":0.01997003540633409,"37":-0.06974273518641282,"38":0.02287521476779052,"39":-0.223098104873734,"40":0.010793724611490257,"41":-0.0806717763918449,"42":-0.03672056879415189,"43":0.07941409034556725,"44":-0.06625701649361283,"45":-0.053262800633989436,"46":0.18196208092182184,"47":-0.04183883085177668,"48":0.04874447156605426,"49":0.14915185533886108,"50":0.06304794989851223,"51":0.04048604498596319,"52":0.015119181575798054,"53":0.11480311143657912,"54":-0.1995528347012391,"55":-0.1250321417058421,"56":-0.07167403459902276,"57":-0.12039620090757928,"58":-0.12248841916583207,"59":-0.11843765012099161,"60":-0.07451864504798401,"61":0.1858970937663474,"62":0.03764647231180726,"63":0.15636042801573763,"64":0.2722810247123636,"65":0.056913174175662044,"66":-0.010867468824991445,"67":0.11948810710493804,"68":-0.10193166006512659,"69":0.05622036343683482,"70":-0.06784663201456126,"71":0.0031534159976345393,"72":-0.16393668348567078,"73":-0.059016327056207164,"74":0.08620256235179537}},{"sx":5,"sy":5,"depth":3,"w":{"0":0.12886385515054538,"1":0.11850837713953286,"2":-0.20798231212246568,"3":-0.051146238189864225,"4":-0.08025122616537536,"5":0.12113155421622207,"6":-0.13405140225807877,"7":-0.07150409459142047,"8":0.06542735050032139,"9":0.1944264178628923,"10":-0.17445418699757037,"11":-0.023489986667381058,"12":0.30076323274023276,"13":-0.07693229504043247,"14":0.0567399004510928,"15":-0.06265405971127438,"16":-0.05214110203921576,"17":0.013852663992997869,"18":0.08241184213817153,"19":0.027010915362996213,"20":0.09590893058439373,"21":0.08784991726065385,"22":0.13057163004614433,"23":-0.21208229423588373,"24":-0.01271141579499805,"25":0.021920025770280002,"26":0.006994579467919269,"27":0.04126930273774841,"28":0.06812295916653416,"29":-0.1674407730478404,"30":0.08049312603886437,"31":-0.13072127589406599,"32":-0.06373723995287775,"33":-0.06599122647781269,"34":-0.21423501362763417,"35":-0.12236893601081371,"36":0.026008728152887343,"37":-0.009912869504395879,"38":0.012383829843966153,"39":0.061480021027972113,"40":0.06713935309017727,"41":0.03376857974386027,"42":0.17285217544071155,"43":0.1615314150507534,"44":-0.08224649745429215,"45":-0.07556736519941291,"46":-0.19574225155601999,"47":-0.03947537420747046,"48":-0.05253010476434242,"49":-0.02830153000506125,"50":-0.03325897353481673,"51":-0.1596373647949906,"52":-0.09162776672850673,"53":0.026768161592946045,"54":0.04533655700606201,"55":0.15766628738186272,"56":-0.004289343850520721,"57":0.3309383362750848,"58":0.09131900085069564,"59":0.16738976826646546,"60":0.013938906232916347,"61":-0.1061800638090104,"62":-0.005025580959977759,"63":0.05214957358470797,"64":-0.05004601059782174,"65":-0.021407500813059713,"66":-0.015529677703373199,"67":0.12672835356581666,"68":-0.00019904952648162378,"69":-0.0965468443412792,"70":0.011552298820918988,"71":0.026565358152080627,"72":0.013413920555462285,"73":0.03814697056506721,"74":0.11531005170300695}},{"sx":5,"sy":5,"depth":3,"w":{"0":-0.15529336016834414,"1":-0.15598022694693747,"2":-0.19822758331007398,"3":-0.2091455622789548,"4":-0.12315418866233943,"5":-0.08949648190716857,"6":-0.000682412893946134,"7":0.20793314055192927,"8":0.11257133171683713,"9":0.10386531320170207,"10":0.13078136823503844,"11":0.10006411053930342,"12":0.06822659381949969,"13":-0.015815414426375813,"14":-0.13194075367276223,"15":-0.01950402032014147,"16":-0.11157507960110073,"17":-0.08418891594536822,"18":-0.16604654770963093,"19":-0.10946150998941666,"20":-0.10855729432439203,"21":0.1639922466278973,"22":0.13755907550938273,"23":-0.12920996629415196,"24":0.0748608778496479,"25":0.21175679630926345,"26":-0.07953585482375378,"27":0.17379919229759833,"28":0.03350729320791152,"29":0.08190545911443475,"30":-0.06899330022733247,"31":-0.07760849967560628,"32":0.01677598589838945,"33":-0.05244896425026972,"34":-0.09736696444733461,"35":-0.12972109392661488,"36":-0.009632667848080345,"37":0.14259579085779095,"38":0.03949582751253966,"39":-0.04308118675741326,"40":0.03086172106895479,"41":-0.04905393719972179,"42":0.10593899296793924,"43":0.14398271403283003,"44":-0.0535787735810028,"45":-0.10563933505088736,"46":-0.19952320194733003,"47":-0.10355844082208836,"48":-0.09549258876641735,"49":0.19181036934893847,"50":0.07890083254803042,"51":0.06337965040245662,"52":0.06334036269100216,"53":0.03902020956819787,"54":-0.313441745893705,"55":0.024315826730936928,"56":0.029182283331052303,"57":0.10496977869923262,"58":0.20252929296433836,"59":0.09947544994608624,"60":-0.007689725837009557,"61":-0.12909242962614267,"62":-0.11354202374161214,"63":0.12243071160009678,"64":0.010300467122662707,"65":0.17991326679984543,"66":-0.10453814905029504,"67":-0.09761900641812582,"68":-0.027147966002781312,"69":0.021849551317451855,"70":0.06400545890936063,"71":0.06538063205627964,"72":0.044819625131563116,"73":0.06933264554441214,"74":0.20104462654565436}},{"sx":5,"sy":5,"depth":3,"w":{"0":0.03606070077274311,"1":0.07037302825100111,"2":0.2217865049962323,"3":0.061910666618895806,"4":0.07675110773348322,"5":0.18014033600703744,"6":0.08227555721814524,"7":-0.07041352327461108,"8":0.2184265785865091,"9":-0.056791969471480644,"10":0.033089026024853266,"11":0.16116807953797732,"12":-0.13102548711302034,"13":0.15311768767515022,"14":0.1989473839596639,"15":-0.1141258360432411,"16":0.021135007415642986,"17":0.20627454265010692,"18":-0.22113773311035245,"19":-0.027421674441731752,"20":0.15815304890839377,"21":0.1637145973998619,"22":-0.012022827166979548,"23":0.21870144402613548,"24":-0.10230770691644431,"25":-0.028457111490256974,"26":0.2597652863282454,"27":-0.0030800107864660704,"28":0.1624187276300998,"29":0.3006735690418467,"30":0.03602189597183664,"31":-0.10292782686480612,"32":0.20539490251596043,"33":-0.1628272608946797,"34":-0.0360119667074908,"35":0.2761950562873373,"36":-0.06941000149698187,"37":-0.010765237635817973,"38":0.1898927742380428,"39":-0.1022657948373058,"40":-0.0976673634120311,"41":0.38158105204934994,"42":-0.038320069172587706,"43":0.053337071541505986,"44":0.1570410146710854,"45":-0.15371695623160173,"46":-0.22609032421282171,"47":0.0793597283151015,"48":-0.28469940921452913,"49":0.1283733124290513,"50":0.05833605504747101,"51":-0.28377201487543835,"52":-0.08658902460489097,"53":-0.006137602664011653,"54":-0.2628175851864118,"55":-0.03861233371950505,"56":0.1399516152383917,"57":-0.10533897845700754,"58":-0.11965241943131008,"59":0.10917522719281583,"60":-0.16609891072302554,"61":-0.14677118124260913,"62":0.1812841139461518,"63":-0.10493430595733097,"64":-0.09053371977020047,"65":0.2460124696876671,"66":0.1292917120967857,"67":0.04776046364497922,"68":0.015676353504686057,"69":-0.01784657614586078,"70":-0.18548999634929014,"71":0.17937072439354096,"72":0.10265602834198695,"73":-0.0185109901411043,"74":0.09882438588779253}},{"sx":5,"sy":5,"depth":3,"w":{"0":-0.15948660459302957,"1":-0.019458118400536743,"2":-0.076994022148765,"3":-0.1325596941688603,"4":0.050124704356445976,"5":-0.08458216831222891,"6":-0.0647351936612553,"7":0.025884070907245302,"8":0.018059834045896176,"9":-0.08149941089340583,"10":0.07665550141069911,"11":-0.06495593192527817,"12":-0.1908204094669688,"13":0.11320649487452893,"14":-0.10415358489190651,"15":0.04482067211436715,"16":0.1444220003046167,"17":0.047236290433388665,"18":-0.017287170764260312,"19":0.1345340931095716,"20":0.08812855838460312,"21":0.1224433207365242,"22":0.02220658902706417,"23":0.024388757169682605,"24":-0.13245406803035945,"25":0.08897389003151489,"26":-0.15394745427664136,"27":0.04806368707084488,"28":0.1207564244378575,"29":0.07496668473413971,"30":0.0181860023676762,"31":0.09339568107795496,"32":0.043225853009761075,"33":-0.09498451803611026,"34":0.04138283087840147,"35":-0.1906719559526117,"36":-0.05440428721945029,"37":0.1354316489754688,"38":-0.07056738538679375,"39":-0.029729928244077112,"40":0.28328572384102807,"41":-0.1726510456193259,"42":0.033497077988482615,"43":0.10955910818931693,"44":0.10986114758118692,"45":-0.13612616271193909,"46":0.2594245649949586,"47":0.06297756598528041,"48":0.03651741721046337,"49":0.12100596010939635,"50":-0.18254972946000364,"51":-0.09517835229182679,"52":0.21874185895386936,"53":0.0312939611219058,"54":-0.025196826920311183,"55":-0.106750173139663,"56":0.22540980350390152,"57":-0.23984673570375348,"58":0.24321475468588838,"59":0.07309977194296885,"60":-0.26414326884766676,"61":0.13787979251986635,"62":0.1301654626852998,"63":0.08207860641751755,"64":-0.00848988142977133,"65":-0.0656085151699355,"66":0.04863833839161276,"67":0.16586162940249907,"68":0.18288334041962717,"69":-0.26000651714629,"70":-0.025669159339392063,"71":-0.07564619092855443,"72":-0.02719402351513293,"73":0.293192999676385,"74":-0.15400116674245073}},{"sx":5,"sy":5,"depth":3,"w":{"0":-0.05595368141817324,"1":-0.0019063499682564862,"2":0.11761222292376342,"3":0.11517067823236399,"4":-0.02779747680640866,"5":0.048225911898511234,"6":0.10790031334503827,"7":-0.17406579532642755,"8":-0.13212660839152998,"9":0.09002625492256898,"10":0.013772021237345385,"11":0.035667979389912174,"12":0.22202535557798733,"13":-0.12359543135057542,"14":-0.16705364769661601,"15":0.17650941465999756,"16":-0.0022824822654205924,"17":0.2028495737505035,"18":0.12489627046164459,"19":0.079123505774013,"20":0.0656566933258335,"21":0.000359607795268186,"22":0.0655930985140862,"23":0.14914213809046178,"24":-0.048542745875340264,"25":0.0946206713442557,"26":-0.052674802980190394,"27":0.0908367220319112,"28":-0.031126952046922327,"29":0.1189668468451045,"30":0.001634081501850568,"31":-0.006974839986890452,"32":-0.013460431542158318,"33":0.23311650757961114,"34":-0.03252200130834277,"35":0.13093390259162724,"36":0.1707487152751407,"37":0.008095094247280017,"38":0.08434037356264949,"39":0.29548124460902536,"40":-0.12607050618365936,"41":0.12995130866569019,"42":0.07721241482928315,"43":-0.14203141621168006,"44":0.11582786512679258,"45":0.02087878691737046,"46":-0.12744602398996488,"47":0.028721199017824512,"48":-0.03796869274763746,"49":-0.1689460759439277,"50":-0.06854110359956747,"51":0.0761061764639006,"52":-0.2031789588114553,"53":-0.04157287529723361,"54":0.06203058556554227,"55":-0.10311414058028637,"56":-0.06319363743704978,"57":-0.04785115163526181,"58":-0.09145255598468387,"59":0.019939356629849143,"60":-0.1357357318608707,"61":-0.4039972094920323,"62":-0.08652729497764221,"63":-0.005234035935447698,"64":-0.3246078910695986,"65":0.008035900048299302,"66":-0.2357811577602332,"67":-0.26764791147347017,"68":-0.15475406920735485,"69":-0.032376244137839474,"70":-0.28029603998401015,"71":-0.18986953537156143,"72":0.16243368546676665,"73":-0.21170556183779365,"74":-0.2553581515611778}}],"biases":{"sx":1,"sy":1,"depth":16,"w":{"0":-0.04792252036463973,"1":-0.17793633207710444,"2":-0.2522132522095718,"3":-0.045910611438589925,"4":0.02784055545522389,"5":-0.14129982133948615,"6":-0.06476753715557962,"7":0.049405281624948935,"8":0.008063358217256891,"9":-0.12765723245146435,"10":-0.02231871971345242,"11":-0.168842687441181,"12":-0.09667408671519213,"13":0.050612390886687134,"14":-0.03490618463712302,"15":-0.2555971942597527}}},{"out_depth":16,"out_sx":32,"out_sy":32,"layer_type":"relu"},{"sx":2,"sy":2,"stride":2,"in_depth":16,"out_depth":16,"out_sx":16,"out_sy":16,"layer_type":"pool","pad":0},{"sx":5,"sy":5,"stride":1,"in_depth":16,"out_depth":20,"out_sx":16,"out_sy":16,"layer_type":"conv","l1_decay_mul":0,"l2_decay_mul":1,"pad":2,"filters":[{"sx":5,"sy":5,"depth":16,"w":{"0":-0.012232265595020783,"1":-0.09712974979371171,"2":0.0682499415673495,"3":-0.030540579716526822,"4":-0.17757314454625234,"5":-0.09364133561951092,"6":0.043454444106360623,"7":-0.09048659733439995,"8":0.03896350109958286,"9":0.023255323668996433,"10":0.18934307736826694,"11":0.03867453639768874,"12":-0.04434201524477183,"13":-0.10264155594767085,"14":-0.11521122619797038,"15":0.1808603030046215,"16":0.09111395503025035,"17":-0.012281788437551582,"18":0.1790223399919627,"19":0.014577380050383597,"20":0.0068846771332954715,"21":0.0267256683659437,"22":-0.13038749112061784,"23":-0.16080178397397135,"24":-0.12531517171938997,"25":-0.0003882277523948378,"26":0.07541863833227615,"27":0.196892096599921,"28":0.028427911529162526,"29":-0.09933265387493158,"30":-0.18258240121840213,"31":0.16722289197012294,"32":0.08449878425335366,"33":-0.03239143911989003,"34":0.1407167355845643,"35":0.10743858206294495,"36":-0.16355334043385825,"37":-0.052945734185088675,"38":-0.003085760613364802,"39":-0.11213836663254553,"40":-0.1618595870646965,"41":0.08342534056887314,"42":-0.05364308019405833,"43":0.043918018446919733,"44":-0.05297456300170564,"45":-0.12515382046629253,"46":-0.13334861241805723,"47":0.15727986628713597,"48":0.15130522985716438,"49":-0.08649001439889285,"50":0.12625491706201095,"51":0.03779252732446695,"52":0.0910084063787684,"53":-0.032050521357286935,"54":-0.05132906143362936,"55":-0.10508389428465553,"56":-0.16577525131285248,"57":0.038352627564122346,"58":-0.020893408029193063,"59":0.12787019691043497,"60":-0.04323781346910116,"61":-0.10570060887113344,"62":-0.07613885556354591,"63":0.23218730959062603,"64":0.09535034770443956,"65":0.08555579921782962,"66":0.10239583854241509,"67":0.022198861420424713,"68":0.06736486327034984,"69":0.1485513392221683,"70":-0.04908441567867038,"71":-0.16078601081316574,"72":-0.004984273725688681,"73":0.06132521173940914,"74":-0.004145670777229418,"75":0.1750799251840075,"76":0.13267973924015847,"77":0.02799855594725288,"78":-0.06653411945832849,"79":0.06610286200000205,"80":-0.02125655156746414,"81":-0.008621920296208077,"82":0.0739976391857462,"83":0.03115382111166526,"84":-0.1572245350072643,"85":0.07338966626372836,"86":0.08329338959345894,"87":0.11868348310988795,"88":-0.13034546696986116,"89":-0.031773933865373485,"90":0.21162183821966601,"91":-0.07580486778486273,"92":-0.03696987943711875,"93":-0.13377060038604915,"94":-0.08885821043248372,"95":0.09639357969703304,"96":-0.10875559767850193,"97":0.03090742432289817,"98":0.019269353634265306,"99":-0.09141636289299634,"100":-0.10110609899312793,"101":0.11572962027365359,"102":0.01155793731813698,"103":-0.061977648694122665,"104":-0.08060002184796038,"105":-0.057908988923300125,"106":0.1976036916555091,"107":-0.02526061111326947,"108":-0.024480356159013734,"109":-0.18120003365495688,"110":-0.10587873683906647,"111":-0.0015411721007256188,"112":0.015096494915309162,"113":-0.046260562477258224,"114":0.13716293351106934,"115":-0.10877122460877074,"116":-0.021511205056477512,"117":0.10848618119967715,"118":0.049706942440313796,"119":-0.011893041193449017,"120":-0.05043955592869961,"121":-0.1588877961901193,"122":0.11145579293490417,"123":0.045122177124817676,"124":-0.00011238791631733969,"125":-0.12068768359824766,"126":-0.23492507879966495,"127":-0.03900975757778952,"128":0.20535716948397637,"129":-0.0005208740782566868,"130":0.024467912360285764,"131":-0.12365886641185113,"132":0.048834196075532736,"133":0.12810335342783116,"134":0.15535801565183555,"135":-0.08552696853677982,"136":0.0363611047366298,"137":-0.1485046223336328,"138":0.022094871794534707,"139":0.12390210909740251,"140":0.026062292380488624,"141":-0.06849439908684618,"142":-0.1716499426210394,"143":0.16114800902751544,"144":0.02688976012248807,"145":0.021573885299047392,"146":0.10922204466825698,"147":-0.027369188312912927,"148":0.12346645356081636,"149":0.09019485042510822,"150":0.1791819437383262,"151":0.059649379900543,"152":0.028733550072726332,"153":-0.036454736195637445,"154":0.05243383491728164,"155":0.048297076418747434,"156":0.17384285875140762,"157":0.033973111634021114,"158":-0.07008704862940353,"159":-0.016834068246904452,"160":-0.016152713599748843,"161":-0.07460970666049066,"162":0.019824703919553103,"163":-0.04495033392514407,"164":-0.09288127648023711,"165":-0.07712312520689833,"166":-0.002744400259990877,"167":0.19737206961878256,"168":-0.10004622833495014,"169":-0.14407051076033794,"170":0.05271001646089204,"171":-0.16876443523246143,"172":-0.06081938498362607,"173":-0.0957811658263293,"174":-0.00018963321606630442,"175":0.0021931012289252384,"176":-0.012545315965563833,"177":0.044047031643960136,"178":0.023884926175024867,"179":0.03742064840552901,"180":0.03843739409046714,"181":0.05750304419111679,"182":0.0879385257554403,"183":0.012861986897309677,"184":-0.05911839021172574,"185":0.021157133098547456,"186":0.21380490648074885,"187":0.02766184404991112,"188":-0.03625539954104627,"189":-0.2577956427611877,"190":-0.075904708458229,"191":-0.017407121835717652,"192":-0.016550607002059826,"193":0.041855958636877875,"194":-0.04472900597035744,"195":0.01678932286876401,"196":-0.05082493361310468,"197":0.11540003033750805,"198":0.13298721535929905,"199":0.13839910400748404,"200":-0.2540936206561094,"201":-0.021974128842701942,"202":-0.007817766231578675,"203":-0.040975453203689075,"204":0.021210269884083713,"205":-0.2533758443457062,"206":-0.12853965292761488,"207":-0.07698237059339068,"208":0.05268415923240189,"209":-0.05259976506753805,"210":-0.11680860332150056,"211":-0.04207895234053887,"212":0.13536967191727153,"213":0.11516752998520118,"214":0.045479186565363976,"215":-0.09142584933399607,"216":-0.20366093900247892,"217":0.10918486903521951,"218":0.034501101259617854,"219":0.05840755003266699,"220":0.11790481831565514,"221":-0.2102889996886571,"222":-0.017740306146938313,"223":-0.12801157837811625,"224":0.07457837508890286,"225":-0.007177205005659963,"226":-0.08733595251070002,"227":0.05848682617488816,"228":0.06172204946540162,"229":0.15834295696520434,"230":0.10269013317608497,"231":0.04010850642886583,"232":-0.09706408788644036,"233":0.015164308424238946,"234":-0.03891729390308853,"235":0.0471323293485746,"236":0.16122506276323445,"237":-0.03767158841452786,"238":0.050435977987916054,"239":-0.06569085822328394,"240":-0.018915100214575997,"241":-0.07430984586269826,"242":-0.16876864858663806,"243":-0.18972811188777033,"244":-0.001338300105649633,"245":-0.14543563964919284,"246":-0.08887174880947073,"247":0.09797575415475326,"248":-0.10719480571561861,"249":-0.10090911047312463,"250":0.18453252473928752,"251":-0.08191564871000916,"252":-0.034404018021659155,"253":-0.06019621918995272,"254":-0.12942170071148124,"255":-0.02549897092743099,"256":-0.03640927580305014,"257":-0.02498536876767938,"258":0.01607097715413396,"259":-0.11414718062936534,"260":-0.09427339624918607,"261":-0.019213812415533014,"262":-0.15677200061727906,"263":-0.08175520700897716,"264":-0.17084368944067205,"265":-0.11568943368097669,"266":0.09720869354926356,"267":0.09739023768507378,"268":-0.02888427177958705,"269":-0.2080906178580956,"270":-0.08472710876356859,"271":-0.09048708754992446,"272":-0.04405654087853112,"273":0.03829813938286652,"274":-0.004345840698929165,"275":-0.0991187147280234,"276":-0.04837210954897562,"277":0.10256385817733231,"278":-0.09030974400257859,"279":-0.052201143135711545,"280":-0.22691245479859248,"281":-0.003955789190074062,"282":-0.08135484677486336,"283":0.1357351671122346,"284":-0.005905289240444648,"285":-0.15698961277363677,"286":-0.007993909584388831,"287":-0.08889444535865203,"288":0.07176347546629817,"289":-0.11498740133692248,"290":-0.18639094789439017,"291":-0.1668465134734254,"292":-0.08940254547250964,"293":0.21346869747958122,"294":-0.07878867941079275,"295":-0.11682593385670749,"296":-0.11355300700617996,"297":0.032097705601336374,"298":-0.03308044141868174,"299":0.03573965417313303,"300":0.0657852454335387,"301":-0.018256924979282406,"302":0.0038515372019345185,"303":-0.05059441217399807,"304":-0.014011486755115113,"305":-0.061009904043801855,"306":-0.1304614256283438,"307":0.03318447224724461,"308":-0.03136070243797539,"309":0.05136837469133213,"310":-0.047769913328274946,"311":-0.09489447328018401,"312":0.00008486102936994904,"313":0.08539180059341678,"314":-0.03691317690165902,"315":0.03352297966279325,"316":0.14509312039750252,"317":0.03300826120639913,"318":0.0662030301362618,"319":-0.15887875416983063,"320":-0.053414187956810744,"321":0.09407639237517795,"322":-0.1479399742578911,"323":-0.16855457692890435,"324":-0.07800488731412544,"325":-0.027025003275966058,"326":-0.15003856689916084,"327":-0.003189134499864425,"328":-0.11857772749090251,"329":-0.18382799715593148,"330":0.10995810758508939,"331":-0.07109906130956378,"332":-0.09908270600477453,"333":-0.0006051246263808706,"334":-0.05844078495219152,"335":-0.07199246510896246,"336":-0.012289994235708132,"337":0.018059919513406797,"338":-0.17493445005835256,"339":-0.1551698564448696,"340":-0.11509767298199779,"341":-0.046418970164446044,"342":-0.10100245323466435,"343":-0.1460653215890642,"344":-0.13618652003040274,"345":-0.09408303446850823,"346":-0.010027525427330167,"347":-0.03395281772899848,"348":0.05950261509949093,"349":-0.0937631597438569,"350":0.046774379222180085,"351":-0.07684041940045604,"352":-0.0015111192802752735,"353":0.04453904395286268,"354":-0.08000096500574533,"355":-0.12849310799190586,"356":-0.024314025486398865,"357":0.020752595513176007,"358":-0.17074401876258438,"359":-0.10069778987922284,"360":-0.151359977622988,"361":-0.10791519565264542,"362":-0.04182041707823544,"363":0.08271914882368049,"364":0.04565986823230513,"365":-0.0874261684868708,"366":-0.020303417183317175,"367":-0.19242206802065212,"368":-0.031594596867427334,"369":-0.05088910959227316,"370":-0.13264625072434125,"371":-0.12123987636667395,"372":-0.032451677164823785,"373":0.07411966587284123,"374":-0.05224308389452442,"375":-0.1827670642467384,"376":-0.09579473464533735,"377":-0.10931500097662145,"378":-0.11104514534918045,"379":0.04677084374514641,"380":0.05437042618367748,"381":-0.024918244988658047,"382":-0.0367054868219752,"383":-0.14346223295354016,"384":-0.0007844105516163979,"385":-0.09190083096472106,"386":-0.08706292422739134,"387":0.09275836877347747,"388":-0.06930665800458984,"389":0.10399790393864426,"390":-0.12962386049744185,"391":-0.08365083382218239,"392":-0.022006112074889773,"393":-0.06440379598401029,"394":-0.06193531028516876,"395":-0.002568672688952695,"396":0.04795003213434046,"397":0.0784948355423116,"398":-0.08825020234045855,"399":-0.19981609930807862}},{"sx":5,"sy":5,"depth":16,"w":{"0":-0.15007732013167666,"1":-0.05621966015771011,"2":0.013678220851131202,"3":-0.011584832652931075,"4":-0.06941993771316968,"5":-0.068923153422161,"6":-0.030348820404673557,"7":-0.14628407008687466,"8":-0.025818269046102887,"9":-0.0339677840237555,"10":-0.04532702807615181,"11":-0.05753131547494808,"12":-0.06951793486728788,"13":-0.008594779095765065,"14":-0.0284105837625687,"15":-0.02834089178085551,"16":-0.009470214429990449,"17":-0.022365961397413543,"18":-0.05055355016872703,"19":-0.06375767723684993,"20":-0.007037836733901526,"21":-0.03121432818102927,"22":-0.05193494242761534,"23":-0.05781366604965265,"24":-0.009399293822138742,"25":0.012305067551348275,"26":-0.08367081840592275,"27":0.028688994713356182,"28":0.00013829318439733163,"29":-0.04248465167074991,"30":0.03481479834958558,"31":-0.009177054307714365,"32":-0.05944026487587296,"33":0.04629394596188216,"34":-0.07034124065928406,"35":-0.03528214568161233,"36":-0.05635471627570182,"37":-0.029858072973022416,"38":-0.04427958768841663,"39":-0.08333082523201511,"40":-0.07131270745738853,"41":-0.17134007320091077,"42":-0.12178664748169755,"43":-0.007888922741691255,"44":-0.0618023491987148,"45":-0.0031281960991073015,"46":-0.09321837675978954,"47":0.0043648826107352285,"48":-0.007031441269829837,"49":-0.1513106754933088,"50":-0.11147839851912553,"51":-0.07051457789563272,"52":-0.0591548052209211,"53":-0.13200868998630683,"54":-0.004339310229169133,"55":-0.15706818253842988,"56":-0.053989782709768515,"57":-0.06572992439088741,"58":-0.13962368710844947,"59":0.01734174338121931,"60":-0.1318465813648575,"61":-0.03798409987497095,"62":-0.05674503144822157,"63":-0.03771618326463077,"64":-0.035388582032938105,"65":-0.004394831463169028,"66":-0.11049653015687111,"67":-0.0069029085214986465,"68":0.016730374561027345,"69":-0.03237462059275945,"70":0.009686420430947007,"71":0.007121092462462945,"72":-0.0849273625554223,"73":0.04234022554400483,"74":-0.022590446998878577,"75":0.019304947366710463,"76":-0.08572508812193473,"77":-0.08821726825019151,"78":0.07005423727512537,"79":-0.15800383014541994,"80":0.004714281490417018,"81":-0.04779091449362651,"82":-0.026971143500171203,"83":-0.034361381596788344,"84":0.059306545239985235,"85":-0.07951444824033803,"86":0.0012150193721788781,"87":-0.08113752304999951,"88":0.09085143039661578,"89":-0.05566015649479764,"90":-0.014854923237094668,"91":-0.05549405124246117,"92":-0.131357980387046,"93":0.0017789652555159565,"94":0.004344550626232352,"95":0.0517424663014508,"96":0.023251273359294368,"97":0.0133906681022164,"98":0.09110238515950593,"99":-0.09316904420564047,"100":0.005979935929813637,"101":-0.009784092961227198,"102":-0.05823631092300943,"103":-0.075114685799364,"104":-0.00785187311337499,"105":-0.05845705045525388,"106":-0.0711618490851635,"107":-0.02669471692465245,"108":-0.02047219075031184,"109":0.03447032010827118,"110":0.0349857331000842,"111":0.07245501988041322,"112":-0.057218754914998754,"113":-0.018706774734823916,"114":0.03733383037597775,"115":-0.06744366933816635,"116":-0.01842660344906868,"117":-0.11866342365958532,"118":-0.08033928829260596,"119":-0.10207636611587599,"120":-0.07502406505408443,"121":-0.03417942284259998,"122":0.005082931057373874,"123":0.04152339070881312,"124":0.09342630547233861,"125":-0.027086715190210598,"126":0.00033597493388699443,"127":0.036171915507498556,"128":-0.13880748667805495,"129":-0.008422176774358815,"130":-0.0183060539121446,"131":-0.0688325526360853,"132":-0.08910587443964411,"133":-0.1038842537614519,"134":-0.09162002159985934,"135":-0.05528004416107692,"136":-0.1129770545744279,"137":0.016030375886368898,"138":-0.0814924879042198,"139":-0.04407583307541626,"140":-0.05048253930153279,"141":-0.01406733821150287,"142":0.05530472785919181,"143":0.0023920218245581906,"144":-0.14737083080445196,"145":-0.056270482378677045,"146":0.07007738229419071,"147":0.03442995533221107,"148":-0.0015387253245969232,"149":-0.15106261887520148,"150":-0.024776711346768985,"151":-0.08514945031823098,"152":-0.11622666679288848,"153":0.0371526132004694,"154":-0.0746507697289139,"155":0.015579525006738298,"156":-0.12940991358696607,"157":-0.059011848333859605,"158":0.022878082303351314,"159":0.07413094300948818,"160":0.025485396418306865,"161":-0.05134743289137924,"162":-0.10168263896718138,"163":0.07341127648412143,"164":-0.09674509727205496,"165":-0.048328536642804246,"166":0.05056844333820868,"167":-0.027180664729770262,"168":-0.064692949184272,"169":-0.021751920591320542,"170":0.023607405037398912,"171":0.07246787958244315,"172":-0.007136132458847383,"173":-0.1476555223057227,"174":-0.003515081729011974,"175":-0.09491182595801738,"176":0.05130304832758015,"177":-0.0007831891958484052,"178":-0.06047100364634992,"179":0.02246036965751459,"180":0.03656393653248896,"181":0.0065293175255530115,"182":-0.006141125828973704,"183":0.05285684010634243,"184":-0.09332602002421096,"185":-0.10157031167240821,"186":0.020421366554240677,"187":0.05581105905381417,"188":-0.02961846853725441,"189":-0.09257107738034345,"190":-0.015161898765922582,"191":0.07572001520553005,"192":-0.007241423884399748,"193":-0.01618843974848478,"194":-0.08032524455753771,"195":-0.03713129570503113,"196":-0.011108511554177376,"197":0.049970489047685265,"198":0.0016524776805075644,"199":-0.007675379801649891,"200":-0.10437525460636372,"201":0.02437866438678629,"202":0.047698779103095786,"203":0.08776096937157292,"204":-0.052701800531616376,"205":-0.06540159347732341,"206":-0.08232457844273913,"207":-0.05123955908786277,"208":-0.006696402429386781,"209":-0.020411953166467583,"210":-0.05055544400919873,"211":-0.028275002028200828,"212":-0.04287240322194443,"213":-0.1818106754156335,"214":0.07846313476466832,"215":-0.16301444808804505,"216":0.012850246076000157,"217":-0.044107677262701,"218":-0.04155207988821478,"219":-0.013332202065703857,"220":-0.06688132599409567,"221":-0.05486642778958824,"222":-0.001579966557125426,"223":0.013093341513072392,"224":-0.05933115056290463,"225":-0.06753437832503975,"226":-0.1007599583605661,"227":-0.005199399285189191,"228":0.014993690922304024,"229":-0.05395211991025577,"230":-0.04997680100228782,"231":-0.024325926704550294,"232":-0.02293972944812457,"233":-0.055260018744669924,"234":0.06624475905318591,"235":-0.02676276231186322,"236":-0.027194995653816365,"237":-0.013535708773481425,"238":-0.07178027574391281,"239":0.0023815457414273684,"240":-0.05840241743175301,"241":0.016183449766945874,"242":0.07437059005229593,"243":-0.06407124155317488,"244":0.014519219275499094,"245":-0.0752219316896983,"246":-0.042638448037972225,"247":0.04629314190144927,"248":-0.13880680532016954,"249":-0.0528880923726187,"250":0.032741162464191224,"251":-0.1566606712118718,"252":0.020680178678362582,"253":-0.012761163746943797,"254":0.01557953839674613,"255":-0.09043102796917767,"256":0.0891781694690941,"257":0.046966396559188835,"258":-0.03085465517149748,"259":-0.04219877660942308,"260":-0.05945055987358093,"261":0.040450414394677815,"262":-0.09336938235559618,"263":-0.06447082017915465,"264":-0.035578532251531556,"265":-0.12366646656564476,"266":0.08560208827310725,"267":0.027882398296692035,"268":-0.008225036558809313,"269":-0.005124853543369781,"270":-0.13440875422781084,"271":-0.039102046854485796,"272":0.005296098957791745,"273":-0.10908397077656502,"274":0.03701618321328791,"275":-0.06384880451113613,"276":-0.04659707328995482,"277":0.029365009683055596,"278":0.059487761802936814,"279":-0.008863427675240095,"280":-0.0328416325284573,"281":-0.10403068217194236,"282":-0.18490415187450457,"283":-0.0402812789968434,"284":0.024406934179598987,"285":-0.02230013019534536,"286":-0.13398017720612268,"287":-0.017029819845473988,"288":-0.10214967068785914,"289":-0.03126564239882704,"290":-0.050594843160214946,"291":-0.13133015384075789,"292":-0.039385953969611684,"293":-0.05021863467887477,"294":0.0324132686782896,"295":-0.06701488225473336,"296":-0.038055044574796665,"297":-0.030598151220490886,"298":-0.08076414721708501,"299":-0.05021038269194793,"300":-0.01299873532448785,"301":-0.0047928136617629465,"302":-0.061299054280830975,"303":0.03041748968615313,"304":-0.11888048366963469,"305":-0.03777530750974831,"306":0.054934225859064024,"307":0.012577788322049858,"308":-0.0006109405775884844,"309":-0.02659620367096659,"310":-0.0288663386298799,"311":-0.06904981701339445,"312":-0.000008848839227562968,"313":-0.03308146387528686,"314":0.048971322861755234,"315":-0.09004188372925905,"316":-0.04805135475748511,"317":-0.12297076176750868,"318":-0.04749689795251221,"319":-0.052011892472683834,"320":-0.030859199546707045,"321":-0.08671368435184093,"322":-0.024018681902797955,"323":-0.10817140020937087,"324":-0.059519482684109434,"325":-0.0948960002479264,"326":-0.13468406179754386,"327":-0.08227354974815747,"328":-0.04717071311607666,"329":-0.08608028764400032,"330":0.046316331935178784,"331":-0.1536864649103865,"332":-0.051019324662223954,"333":-0.13902553925939776,"334":-0.06242893333450754,"335":-0.031071707260432874,"336":-0.01606752938217442,"337":-0.13113550075388825,"338":-0.00843405974557073,"339":-0.03413388675570465,"340":0.09008268548079754,"341":-0.05286703435280019,"342":-0.11560672954196026,"343":0.0027115956768295397,"344":-0.04128385172353664,"345":-0.025986488633391498,"346":0.005793943099935034,"347":-0.04788718078707999,"348":-0.013251697270873556,"349":-0.002703658943310359,"350":-0.08915945633204622,"351":-0.13264637623969006,"352":0.08429956221637092,"353":-0.04589784460251064,"354":-0.11124747543061156,"355":-0.06549182676067584,"356":-0.01749225277267779,"357":-0.11449440722512104,"358":-0.042358684960523925,"359":-0.06678865886102535,"360":-0.04168142363867335,"361":-0.03268150016504606,"362":0.022806462088939185,"363":-0.06777474969300487,"364":-0.019240051409174376,"365":-0.021822944469331033,"366":-0.025655494051319897,"367":-0.09181199404720154,"368":-0.1176975441629829,"369":-0.07474539314210922,"370":-0.08084862314206591,"371":-0.07941076308176236,"372":-0.0613369263925913,"373":-0.09294780038954512,"374":-0.018326038821273653,"375":-0.05338336970123841,"376":-0.13689628420780856,"377":-0.03844222408283618,"378":-0.035751437359461916,"379":-0.09874151444176696,"380":-0.0680333542871177,"381":0.012711944296092598,"382":-0.0321012234525513,"383":-0.0037351779799314816,"384":-0.13582390397213814,"385":-0.09495350559615556,"386":-0.0337721656012298,"387":-0.13632793079859404,"388":-0.05222486164590657,"389":-0.011573619692465108,"390":-0.09380932077815038,"391":-0.058744160855575246,"392":-0.016590692174482582,"393":-0.014123798433396563,"394":-0.02748551246145261,"395":-0.13790635390226247,"396":-0.01972532720007827,"397":-0.07400635655908733,"398":-0.04841699743836631,"399":0.002690424855773533}},{"sx":5,"sy":5,"depth":16,"w":{"0":0.01381388124858109,"1":0.08856670881649559,"2":-0.09134352749171733,"3":-0.05393330632643018,"4":-0.11923825927653155,"5":0.002865718770586499,"6":-0.017032777467257183,"7":-0.05538376844583835,"8":0.012362130242841106,"9":-0.02776146039205744,"10":0.07069609613218039,"11":0.0009486816851542994,"12":0.013296217734398385,"13":-0.026999868222058427,"14":-0.01758591435595078,"15":0.028810574938461217,"16":0.05614813576189114,"17":0.02167076966085925,"18":-0.07284772956450529,"19":-0.16806075808920817,"20":0.026402355762871175,"21":0.04378176620870095,"22":-0.1532241251651843,"23":-0.11252510681560425,"24":-0.07694119446525248,"25":-0.02670017818709983,"26":0.0210160437066257,"27":0.03727447458390008,"28":-0.0011123792612812025,"29":-0.06220945989824148,"30":0.002139170462237883,"31":-0.043006260452146526,"32":-0.016009901012098246,"33":-0.09002920488133018,"34":-0.01285895178141872,"35":0.06967998063597342,"36":0.08850719768418348,"37":-0.0621759552540858,"38":0.017520518993625143,"39":0.0020416746716461352,"40":0.00534670668863127,"41":-0.05415955516070437,"42":0.03903117840400656,"43":-0.07891034820968014,"44":0.04797859681863467,"45":0.03454342352997497,"46":0.02389830502577918,"47":-0.10463466337521068,"48":-0.15064052066195155,"49":-0.10750281491061212,"50":0.004556951625792787,"51":-0.004055637204804687,"52":-0.0588410303354199,"53":-0.1199457318570536,"54":0.032616574253057404,"55":0.02942611287351087,"56":0.12500877552350936,"57":0.03951705669621649,"58":-0.11782974551444433,"59":-0.04228682570154321,"60":-0.04856421176493195,"61":0.08065372812874155,"62":-0.025076282763893995,"63":-0.10208624320304785,"64":0.00988655122523437,"65":0.03621375324217374,"66":-0.07761340141954817,"67":0.1168279698379227,"68":0.05858183624962628,"69":-0.04350697580510787,"70":0.005914649548719991,"71":0.074718775638372,"72":0.07435018932208719,"73":0.09992301881102879,"74":-0.0852603868719738,"75":-0.02401093030972141,"76":0.0035154794931483266,"77":0.05606265684602133,"78":0.16692497992875255,"79":-0.06501795007403129,"80":0.08525458937100239,"81":-0.032833562968653064,"82":0.0002300161503011784,"83":0.012952120512597632,"84":-0.06712570299624072,"85":-0.012102137104625255,"86":-0.05864236337334994,"87":-0.016479911050262284,"88":-0.004615885229078739,"89":0.020199917173019763,"90":-0.001958810589858668,"91":-0.09381288429860339,"92":-0.0018387045846778322,"93":-0.0713470387831587,"94":-0.0809675025556401,"95":0.06975062519078674,"96":-0.02321213148262391,"97":-0.011515330721077726,"98":-0.05695061795363941,"99":-0.07503737759460212,"100":-0.02052084981705425,"101":-0.04569205059745862,"102":-0.053694863779203364,"103":-0.09692641973166005,"104":-0.00662349499233789,"105":-0.04393215962131262,"106":0.03495510650255455,"107":0.04753121919041273,"108":0.03557831956340633,"109":-0.08606112179956482,"110":-0.13435981793602936,"111":0.01305313023466343,"112":-0.0791952975340222,"113":-0.017944316868798927,"114":-0.03790775289343021,"115":-0.09120935108892068,"116":-0.04950617718367024,"117":-0.05267956080953513,"118":0.0914316562779014,"119":-0.13071385445486516,"120":-0.027792853310119468,"121":0.008999812740556976,"122":0.01177326982344383,"123":-0.12143638539252304,"124":-0.023414531764471377,"125":0.0789370072085676,"126":-0.016101190588962616,"127":-0.07140684055972996,"128":-0.009777355286932705,"129":-0.07241748018294174,"130":-0.07187193275280711,"131":0.03258936992053505,"132":-0.08267437781720487,"133":-0.008349850026310885,"134":-0.011453636467344545,"135":0.0632377312265887,"136":0.10960836032749229,"137":-0.033979059118857326,"138":-0.12268855030743461,"139":-0.04284891145990464,"140":-0.046063322516166565,"141":0.05712990613682437,"142":-0.08871745022509309,"143":-0.02313970767356338,"144":-0.013698547793277411,"145":0.05442153401872397,"146":-0.06445107850083996,"147":0.07277328129936537,"148":0.09340762371105285,"149":0.00495213905314911,"150":0.10228367463393592,"151":0.04484402238118924,"152":0.071975636011921,"153":0.029759403043021403,"154":-0.1362239301859709,"155":-0.04190439962019979,"156":-0.1216113740454536,"157":0.1332991553757872,"158":0.04364570329688989,"159":-0.20195719916815447,"160":-0.034857992015835094,"161":0.029565464905949856,"162":-0.056212805823359996,"163":-0.21601481661045588,"164":-0.06312884176011224,"165":0.02663876600273737,"166":0.0021915992036441955,"167":0.023663853284873314,"168":-0.08105947726803572,"169":-0.1744494803276663,"170":0.0636647971945549,"171":-0.043939524181299434,"172":0.07659994176807092,"173":-0.023395780885524454,"174":-0.06576901862291502,"175":0.024562499423674413,"176":0.08220681525672473,"177":-0.010147707419795388,"178":0.032205299785399766,"179":-0.1401238822110599,"180":-0.06219588074219751,"181":0.03579805573428246,"182":-0.0050421657312399734,"183":0.057161980138392784,"184":-0.09927556674860928,"185":-0.13711826839945893,"186":0.06678646873577646,"187":-0.02506426299871635,"188":0.014009547587057948,"189":-0.13288522865745744,"190":-0.10896377726597295,"191":0.00347675133603803,"192":0.001774361754684149,"193":0.048558221728224604,"194":-0.16805028237388853,"195":-0.06988147106783471,"196":0.01282005301799715,"197":-0.024001677307823772,"198":0.07445240541341115,"199":-0.03493851310979438,"200":0.05083866879894205,"201":0.02215252086620232,"202":0.10116440843823443,"203":-0.04843028159113556,"204":-0.014901757236131083,"205":0.06235721531542929,"206":0.025237423868200253,"207":-0.20061738982225016,"208":-0.03354704104237297,"209":-0.01701267801257467,"210":-0.09084075042755438,"211":-0.006082452891128866,"212":-0.11172465794434704,"213":-0.05058123126178188,"214":0.10526313107416684,"215":0.05593474484053097,"216":0.0032194535959495516,"217":0.06311775964511174,"218":-0.059169241609979585,"219":-0.07729356491942053,"220":0.002385595820699847,"221":0.07537094655764194,"222":0.07423510779906202,"223":-0.17881817808940836,"224":0.0013672272308691566,"225":-0.04443389907666138,"226":-0.08612348825863764,"227":0.01791649450214566,"228":0.05083107548320078,"229":0.1333937252759158,"230":0.17354820163839924,"231":-0.014920993010164925,"232":0.10045277346486489,"233":-0.01604938543912733,"234":-0.10318019278604426,"235":-0.004983799382279466,"236":-0.08666191168224417,"237":0.1662103998478338,"238":0.08835758195775614,"239":-0.17490612392700877,"240":0.021539137008098067,"241":0.016177873297381098,"242":-0.081684562030998,"243":-0.19099771142840935,"244":-0.11041796302986895,"245":0.029061210696032846,"246":-0.14994616630426094,"247":-0.0530021626063053,"248":-0.13514259508764595,"249":-0.08470746498983212,"250":0.11868923431808782,"251":0.043146341550003665,"252":0.0026813838164083284,"253":-0.12513043456296732,"254":-0.022312961073438515,"255":-0.08623620313339703,"256":-0.020912729340041535,"257":-0.04251510652238229,"258":-0.16767065381139581,"259":-0.22123485558398073,"260":0.04418143399702185,"261":-0.005887015860558501,"262":-0.12668323037247767,"263":-0.12029249903128736,"264":-0.13225123505418065,"265":-0.24213255844598539,"266":-0.054043857947796016,"267":-0.006965985723136664,"268":-0.008355203224506698,"269":-0.18840303382327447,"270":-0.05931292295584057,"271":-0.04560462934400192,"272":-0.13319447425477537,"273":0.02240694505426257,"274":-0.0955256509270751,"275":-0.08729633263151422,"276":0.06261535434813918,"277":-0.019886789542519417,"278":0.0430821171148079,"279":0.05895099686156878,"280":0.02909134997297838,"281":-0.039816931195760984,"282":0.06376922325890122,"283":-0.014072966898530591,"284":-0.13576884138080822,"285":-0.11414038522833916,"286":-0.0018202473103133636,"287":-0.1805812017439296,"288":-0.0101524295497603,"289":-0.0051395463126090064,"290":-0.16192213233749123,"291":0.03649092715420306,"292":-0.062348943751492185,"293":-0.04818070518536887,"294":0.11086185142817492,"295":-0.04531468565688326,"296":-0.0785717648518761,"297":0.020263287760267725,"298":-0.05424835619176569,"299":0.031823511738609776,"300":-0.041546300443279574,"301":0.10797534134904271,"302":0.06062042350606223,"303":-0.2189165484036309,"304":-0.1018610736509593,"305":-0.036911116066786896,"306":-0.10638686674529756,"307":-0.08792822618320272,"308":0.07896650151520615,"309":0.020012750966937182,"310":0.10923092129626756,"311":0.05839843099946687,"312":0.013483478137129103,"313":0.10595746327550296,"314":-0.08853694720807558,"315":0.07097397296144847,"316":0.12882006013278688,"317":0.0010750156998531213,"318":0.07017777093540208,"319":-0.09487994572608524,"320":-0.061443303467819906,"321":0.0969071218064208,"322":-0.03161510768046421,"323":-0.04655460450387061,"324":-0.03381287023784852,"325":-0.06206394483580392,"326":-0.050635754474592794,"327":0.0738098288451248,"328":-0.20962127456062052,"329":-0.12245686758251151,"330":0.013597268258906559,"331":0.0627257405337888,"332":-0.006551285409695746,"333":-0.18231630575936703,"334":-0.05850260815223583,"335":0.00955108533014348,"336":-0.06398069556300971,"337":-0.11031567989837758,"338":-0.07768482688567283,"339":-0.12632480473170996,"340":-0.08195208537467343,"341":0.06487705230752437,"342":-0.1642636726878536,"343":0.009331997095664917,"344":-0.07455886761962774,"345":-0.07639934325902169,"346":-0.09468613534642083,"347":-0.0037164907283927053,"348":-0.0007899123361180768,"349":-0.06624272947282593,"350":-0.04403850866650958,"351":-0.06382249076557107,"352":-0.13776464687962695,"353":0.07292578727123347,"354":-0.0577755634232433,"355":-0.02297653236242942,"356":0.025442535721866895,"357":-0.023934880026358907,"358":-0.03787373909075402,"359":-0.19976801850457343,"360":-0.017194536159973,"361":-0.074716054480258,"362":-0.12083934378343134,"363":0.0012815621187548922,"364":0.0014247653167550145,"365":0.04045042243953515,"366":-0.018847629496949875,"367":-0.08799482815809807,"368":-0.08077806345698027,"369":0.045610431912551506,"370":-0.08897802770987392,"371":-0.010151230521999437,"372":0.029208231954087116,"373":-0.09589519918475242,"374":0.12207793021048609,"375":0.07291965911644133,"376":0.07014183507649015,"377":-0.019481625008089688,"378":-0.15200701679596196,"379":-0.04649460433502795,"380":-0.05419671086265998,"381":-0.09900913100651829,"382":0.07397056155956726,"383":-0.21907380322346415,"384":-0.10059609257274416,"385":-0.02995377212134666,"386":-0.20233771148945265,"387":-0.06465443706924491,"388":0.054822792774787556,"389":-0.047799105022689296,"390":0.12201118158243437,"391":0.053723177025856134,"392":0.0677000119340348,"393":-0.049586890606729675,"394":-0.21247074910305352,"395":0.06048372321535157,"396":-0.018508738349354195,"397":0.09598298518529864,"398":-0.04553271494077253,"399":-0.15703284703555684}},{"sx":5,"sy":5,"depth":16,"w":{"0":-0.012159544467099156,"1":-0.11112926782493851,"2":-0.04986725820242073,"3":-0.17872245338929965,"4":0.09911980197262564,"5":0.001667397878135448,"6":0.02478343826059294,"7":0.02408847607882842,"8":-0.0902632965714197,"9":-0.1465897992836696,"10":0.006457339541133717,"11":0.054449396321742914,"12":0.08763018076876955,"13":-0.15470844724341248,"14":-0.07224491282780267,"15":-0.005948012544452655,"16":-0.0017081928683305662,"17":0.03948321883730518,"18":-0.0033396152308655396,"19":-0.20649796513289737,"20":0.023091846395764233,"21":0.07687290353642406,"22":0.001726732022207789,"23":0.09758340928003997,"24":0.03428400581326704,"25":-0.11192010879486525,"26":0.06668477257117533,"27":0.04535756466214188,"28":-0.09686896228538434,"29":-0.10896779771311055,"30":0.05867029099192576,"31":-0.1224438565271373,"32":0.09735090074438459,"33":-0.03598004941426063,"34":-0.08114477342403625,"35":-0.20944118637691686,"36":-0.01259571966853543,"37":-0.0638922527980889,"38":0.07929792832594217,"39":-0.012229672956313557,"40":-0.13587508415685848,"41":-0.12307494742698209,"42":-0.017208279610347734,"43":0.02476574937680185,"44":0.0277703198155384,"45":-0.1400767466378265,"46":-0.022380003772239948,"47":-0.05121882308988765,"48":0.03857264530757673,"49":0.031390590384238394,"50":-0.08443293325601264,"51":-0.10865290905043043,"52":-0.0015518468276768654,"53":0.04914283994036125,"54":-0.04470612966498456,"55":0.012982966632699558,"56":-0.2081552766026348,"57":-0.09732283782937806,"58":-0.023081099404745755,"59":-0.010706049223711198,"60":-0.015419316669949779,"61":-0.20288254968469063,"62":-0.024671815984984094,"63":-0.026900909015660956,"64":0.06716266979530738,"65":-0.10456259296995532,"66":-0.012008740096891252,"67":-0.15526047594497924,"68":0.055584431432701024,"69":0.008860983655436618,"70":-0.14997482938446047,"71":-0.092654773839326,"72":-0.1575183334477693,"73":-0.06575332259437074,"74":0.009821289930721941,"75":-0.10419323892705551,"76":0.022522684374591675,"77":-0.05433510113299299,"78":-0.1506552365759114,"79":-0.13164345109762532,"80":0.054612721669654384,"81":0.05408672010994073,"82":0.005066941206013503,"83":-0.25728170875079687,"84":0.08454235876232107,"85":-0.07520456389037537,"86":-0.09404533632646371,"87":-0.0016783541296029694,"88":-0.11899623743338342,"89":-0.05799649136124166,"90":0.023106443717257667,"91":0.025400917996241106,"92":-0.0244317324024965,"93":-0.170550324228501,"94":0.06712769906002007,"95":-0.009257292583906044,"96":0.03171913902021411,"97":0.08581061900341326,"98":0.031557639449743,"99":-0.27387600974741294,"100":0.017110108484919985,"101":-0.10496421845293817,"102":-0.08425709265552399,"103":0.026257363533838583,"104":-0.21150595946235246,"105":-0.17105422697284223,"106":0.0033647005206581568,"107":0.07606319976777637,"108":-0.08364241518009546,"109":-0.1482164006258613,"110":0.013161205200329517,"111":-0.09986560007726929,"112":-0.022333243951417496,"113":-0.036730203600875276,"114":0.04614608184470509,"115":-0.2061158403534567,"116":0.05814345721256689,"117":0.01834808019745273,"118":-0.041998270235359916,"119":0.09707046803283277,"120":-0.1932776008642163,"121":-0.09847943584009992,"122":-0.10703058546485095,"123":0.029767584957411476,"124":0.06293615453555261,"125":-0.14615591279932072,"126":-0.006466781334760562,"127":-0.05827949497788035,"128":0.04197821099893416,"129":0.08897060805247704,"130":-0.0352782980854328,"131":-0.07736962825194235,"132":0.026240823763928056,"133":-0.0848552711466216,"134":-0.03493088278152214,"135":0.13414914427319583,"136":-0.21228568083330907,"137":0.015830673274630218,"138":0.010829570595450644,"139":0.039552447511021355,"140":-0.022654872787649414,"141":-0.18347788156127354,"142":-0.025663188883914657,"143":-0.10127860289404464,"144":0.0829222138248688,"145":0.023924327849391032,"146":0.0573068368469544,"147":-0.26046174602138983,"148":0.026488887277864453,"149":-0.0030992789643236214,"150":-0.1695206251398094,"151":-0.01903074479310872,"152":-0.08777032027119706,"153":-0.04144584600524106,"154":0.020333297295727356,"155":-0.08997840414926628,"156":-0.028255488598194618,"157":-0.09502883629946823,"158":0.0045316622129935435,"159":-0.02048761550697084,"160":0.03113521370477924,"161":0.14578905057294247,"162":-0.0536154049653049,"163":-0.23289139723020644,"164":0.047022058506537796,"165":-0.10191174339411661,"166":0.008851543563970903,"167":0.1110354431277659,"168":-0.2551376728736911,"169":-0.14238639617570473,"170":0.008536608760815984,"171":0.09484528925739992,"172":0.06115645312244924,"173":-0.14643941830439108,"174":-0.06086924936017355,"175":-0.1112364278633392,"176":-0.07286510494834242,"177":0.016501159561004196,"178":-0.014873884124132269,"179":-0.3073970344281155,"180":0.037013431999574534,"181":-0.04791348597626243,"182":-0.1353632091905188,"183":0.027879843193515587,"184":-0.24703572354146594,"185":-0.18455841191922956,"186":0.03640829781352602,"187":-0.0010733762149669505,"188":-0.0819772616048067,"189":-0.2693085327426238,"190":0.06855390633373902,"191":-0.16910909919364345,"192":-0.01457809226543643,"193":0.021535075891584127,"194":-0.04428975477007742,"195":-0.16904128258758114,"196":0.06018361059734603,"197":-0.10593770358685724,"198":-0.17041138265173042,"199":0.05417216799696289,"200":-0.20668212959718926,"201":-0.12188394105824163,"202":0.05155824886059268,"203":-0.07886534548196451,"204":0.021514618866236665,"205":-0.09895426161478822,"206":0.015311870683156915,"207":-0.10901449842535459,"208":0.03357906431445048,"209":0.03427466974374878,"210":0.06992503604078773,"211":-0.28834682401710005,"212":0.03374033146123348,"213":0.036016396624727706,"214":-0.10321814777212025,"215":0.047166337463247804,"216":-0.27336051862243016,"217":-0.08259204303824182,"218":0.045182260414331196,"219":-0.009913595507251322,"220":0.009403802757901893,"221":-0.2548578576078613,"222":0.07770507582022275,"223":-0.06384022682294604,"224":-0.03538196421045416,"225":-0.0013300250517828862,"226":-0.0037278638968492976,"227":-0.15464891243708706,"228":0.017621625209468205,"229":-0.1742192977502392,"230":-0.06438092125803936,"231":0.036277307582048446,"232":-0.23179046721719793,"233":-0.06576968187212129,"234":0.11201869098470854,"235":-0.14967719930475798,"236":0.03503838681012849,"237":-0.14490894258578316,"238":-0.01673241963021894,"239":-0.10801024314713027,"240":-0.08019750176149402,"241":-0.017848500202828053,"242":-0.016244170287485312,"243":-0.21776111267367296,"244":0.12786671536926372,"245":0.02575241607878734,"246":-0.1463940930292676,"247":0.09488954102357874,"248":-0.21481159052479992,"249":-0.0854094341775389,"250":0.026923522235375787,"251":0.0025646578682041246,"252":0.14960304884337708,"253":-0.12683569811221718,"254":0.08293088388069757,"255":-0.20101380441120306,"256":0.1384164517196172,"257":0.026562018051415302,"258":-0.14953777095876591,"259":-0.2548744616690177,"260":0.049352792458413106,"261":-0.07627730581644605,"262":-0.1865342777580544,"263":0.0914951280790644,"264":-0.18515846282347093,"265":-0.11638545268209426,"266":-0.001124232301117435,"267":0.06170050009669227,"268":-0.034421136452615096,"269":-0.18252155955749405,"270":0.06513182286536423,"271":-0.08623067536533431,"272":-0.04706150930843488,"273":-0.038121147864480814,"274":-0.10726737582219117,"275":-0.2574326166927413,"276":0.0976235565495475,"277":-0.05378235131060137,"278":-0.07630149608779989,"279":0.03680251731556201,"280":-0.12006475489777056,"281":-0.1383347841775749,"282":0.08143951168726184,"283":-0.06812514738687597,"284":-0.06834572572653133,"285":-0.16450320973445304,"286":0.109396748224369,"287":-0.11849558853248475,"288":-0.019481539941930387,"289":0.011107402753729989,"290":0.04948608895447647,"291":-0.14291676502969933,"292":0.04981254774668768,"293":-0.029478720672281668,"294":-0.12547696309610243,"295":0.06464661717991772,"296":-0.2440300179292319,"297":-0.0013688686165892095,"298":0.052836280104007115,"299":0.0372799469274244,"300":0.04276414412019839,"301":-0.2291579776602064,"302":-0.021783798742815018,"303":-0.15894008367747015,"304":-0.06436745705734548,"305":0.03260229783107271,"306":0.009692291558318114,"307":-0.04645623479256128,"308":0.1636823132234409,"309":-0.055063676704705605,"310":-0.1441453412789671,"311":0.11889302155327308,"312":-0.14232122509291373,"313":0.0062101688832429,"314":-0.024955395289720614,"315":-0.01010246470369611,"316":-0.006874734934145952,"317":-0.24822194856999355,"318":0.00461912576020733,"319":-0.11337692845322471,"320":0.08427138749743598,"321":-0.009864466798769901,"322":0.13748229617757107,"323":-0.18519740268951734,"324":0.11394593499894304,"325":-0.06242495848710575,"326":-0.15588579624331783,"327":0.04759430641751767,"328":-0.09642530374008033,"329":-0.15748929571589274,"330":0.06153253816734948,"331":-0.11009010018272976,"332":0.016422130034832557,"333":-0.21049009525315818,"334":0.1472307997524053,"335":0.10083651226076358,"336":-0.030888931906653337,"337":-0.13904267161244913,"338":0.021188982743547663,"339":-0.18545042556913918,"340":0.0311243219249936,"341":-0.08907170037221851,"342":-0.17687691949988749,"343":0.006490676038040217,"344":-0.13600270003861098,"345":-0.1897615957981092,"346":-0.10810988518149649,"347":0.07973743097102065,"348":0.060448470206761425,"349":-0.1722607919969618,"350":0.08882745502051197,"351":-0.07062267685850204,"352":-0.0031263801877792364,"353":-0.08874138362274972,"354":-0.0913537860658179,"355":-0.18331020626983244,"356":0.065585024641137,"357":-0.20120863886604795,"358":-0.12164095688172792,"359":0.010642645327859112,"360":-0.14320717215379397,"361":-0.16041642648766355,"362":-0.04116942200875284,"363":0.04583875310567397,"364":0.10848214582151322,"365":-0.2147342631940924,"366":0.11198275370428946,"367":-0.13816080554732657,"368":-0.04111056202964213,"369":0.013426708103802091,"370":-0.07489191564458633,"371":-0.21009453375949919,"372":0.11148554370959142,"373":0.013305593521468893,"374":-0.06635891923175598,"375":0.020317048099151372,"376":-0.1087687612019009,"377":-0.1582834592244419,"378":-0.006302007173005887,"379":0.03890840455162221,"380":-0.07011564181343154,"381":-0.18194371018525804,"382":0.11861911011639907,"383":0.008026228095727781,"384":0.08934441400753909,"385":-0.06856143731093854,"386":0.0409266400840939,"387":-0.15293004255605747,"388":0.10232318477816478,"389":-0.09045677115814359,"390":-0.12768516625722157,"391":0.03331148677410618,"392":-0.11193194891365044,"393":-0.07864492123372763,"394":0.12398410736025783,"395":-0.010164734900406586,"396":0.018446056196781437,"397":-0.2121201132422163,"398":-0.03848082803997489,"399":-0.30803529068952495}},{"sx":5,"sy":5,"depth":16,"w":{"0":-0.05309760785476203,"1":0.04523672213045198,"2":-0.09720429299259288,"3":0.007633453205183304,"4":-0.09109716498083957,"5":0.04647189604016215,"6":-0.07120900731015924,"7":-0.19307361201817616,"8":0.08095122569873418,"9":-0.007587198132754062,"10":-0.07871029727598827,"11":0.11883711020334976,"12":0.12093331055192001,"13":0.0341021740218239,"14":-0.016884530794412905,"15":0.006622857263150909,"16":0.024691712745832033,"17":-0.060127526034051054,"18":-0.0659158830467137,"19":0.02050823492877016,"20":-0.03698896339119405,"21":0.024842025992219345,"22":-0.03834253782962243,"23":-0.05887289290209757,"24":-0.01982356355906376,"25":-0.04396411981797482,"26":-0.027145787019821517,"27":0.011323234495354748,"28":0.003678968677767171,"29":-0.010470013347157414,"30":-0.07964165783680634,"31":-0.02659681779256352,"32":-0.1425291937699667,"33":-0.07472822103894337,"34":-0.11646188311549416,"35":-0.07598881396101709,"36":-0.1682539419068236,"37":-0.0981501208294723,"38":-0.13373972887792504,"39":-0.01934043767910595,"40":-0.04367254185292605,"41":-0.015765579680207985,"42":0.04849709773172294,"43":-0.13371132367232202,"44":-0.03090863584636526,"45":0.03226791381472908,"46":-0.07590348268053365,"47":0.018351024233011916,"48":-0.14249310785420474,"49":-0.11315822190476234,"50":-0.1122651619692294,"51":0.0453461749946047,"52":-0.1798889827889814,"53":-0.018205317707281597,"54":0.06492541020689166,"55":-0.05018872255298892,"56":-0.04301427247061806,"57":-0.06982991637397921,"58":-0.0679639999395516,"59":0.009772955642267492,"60":-0.0572816635701622,"61":0.04222541202700572,"62":0.0055690480881766214,"63":-0.08849612110683014,"64":-0.10502891719414383,"65":-0.07103790714522944,"66":-0.1870165531962983,"67":-0.013323298674996622,"68":-0.1793008174818729,"69":-0.12361893430497599,"70":-0.11896955189271384,"71":-0.03901912422335509,"72":0.0003910889242810931,"73":-0.06745617774537281,"74":0.008923950383504652,"75":-0.06653047721899691,"76":-0.10675546130608844,"77":0.004560093148816365,"78":-0.10491112559508235,"79":-0.06697394658308131,"80":-0.09377885855271727,"81":-0.010611922813928372,"82":-0.0736655809116138,"83":-0.075863997434299,"84":-0.12570044425228,"85":-0.058385424541348346,"86":-0.03205550459882752,"87":0.06492725135220992,"88":0.024605614775010675,"89":-0.10407511542996868,"90":-0.13343764752919648,"91":0.06352534654159023,"92":-0.13680846031770025,"93":0.13147078928966735,"94":-0.14274066489766424,"95":0.020415976933534863,"96":-0.11739152325001202,"97":-0.03309332365122546,"98":-0.1345736024252153,"99":-0.0016148146064356853,"100":-0.08095866090365045,"101":-0.027329146755515763,"102":-0.03556620690052295,"103":-0.1811214146357938,"104":-0.046010509270964194,"105":0.0013276949765514765,"106":-0.010419570238486525,"107":0.03427191574225571,"108":0.04777232968352681,"109":-0.017825137638695032,"110":-0.05113661384312622,"111":-0.05222335095232236,"112":-0.10960056359546151,"113":-0.0007303957687961148,"114":-0.09601462028706166,"115":-0.001291061726660198,"116":-0.07210583761795525,"117":-0.09562231772935088,"118":-0.06330293508711261,"119":-0.05350530759458138,"120":0.018608310975884456,"121":-0.051404838229917156,"122":-0.007213559591188644,"123":-0.048223047447264085,"124":-0.12690290437090562,"125":0.007886436416520247,"126":0.06748130253642132,"127":-0.023384080640853063,"128":-0.0021116356642436594,"129":-0.04738755209982725,"130":-0.1398052374730456,"131":-0.11723322389656152,"132":-0.13219208513454112,"133":-0.04618094707461179,"134":-0.005123125764449276,"135":-0.07517439137224163,"136":-0.06510970817272967,"137":-0.049532767195176595,"138":-0.14072478548397666,"139":-0.019272924062343506,"140":-0.09346176136306157,"141":-0.015491614862549902,"142":-0.058821377982080626,"143":-0.09033572583292006,"144":0.0423208953304333,"145":-0.09331251353653217,"146":-0.07637583246407663,"147":-0.05449789719697242,"148":-0.16455593574050903,"149":-0.06496430049756947,"150":0.03313217395169634,"151":-0.07057006550862824,"152":0.06854656985737807,"153":-0.1063514778554075,"154":0.01756165107875883,"155":-0.03097582795051574,"156":0.04653676479089356,"157":0.021241927993725592,"158":-0.07982536522573817,"159":-0.1026744028637615,"160":-0.00399931254505052,"161":0.028686269703424253,"162":-0.027202266475365302,"163":0.04461316043317265,"164":0.12758191550438935,"165":-0.05035245592501312,"166":-0.08755210287537046,"167":-0.010199788983365253,"168":0.11895651078319054,"169":-0.011692009553853099,"170":-0.030032071043032023,"171":0.03645932880061409,"172":0.013411425838524234,"173":0.10318907602395515,"174":-0.10533984816609233,"175":0.13226756877249587,"176":0.10135141712181184,"177":0.014415948788311641,"178":0.08176909227553042,"179":0.16601054856759728,"180":0.1333296723184004,"181":0.07097916196913952,"182":-0.05536307870845378,"183":-0.010178167729551806,"184":-0.013747863218186922,"185":0.10043248510891056,"186":0.06085455570508442,"187":0.12940274613902403,"188":0.024965629648623207,"189":0.019808382574387648,"190":-0.02852300932642874,"191":0.10703533696502407,"192":0.06780156879232396,"193":0.06321039910813239,"194":-0.029213045899193033,"195":0.04551154839612737,"196":0.004413215051451581,"197":-0.023415277554476033,"198":-0.0825436071628973,"199":0.012581313220880854,"200":-0.11813558023561702,"201":0.06851155005264949,"202":0.03399045706542694,"203":-0.009222430867020487,"204":0.07103188458070987,"205":0.10301203216621581,"206":0.09713750461878705,"207":0.16048503378400616,"208":-0.000658449718812951,"209":-0.11913780314082273,"210":-0.1262861393584971,"211":0.08522339223654124,"212":-0.05336903952646015,"213":-0.07123369947171182,"214":-0.14004386182447354,"215":-0.015934378315240645,"216":0.01884325749923523,"217":-0.08213812241918678,"218":-0.04667723194259564,"219":-0.19802223299818072,"220":-0.007699623477640897,"221":0.03442698926803349,"222":-0.012198032539844859,"223":-0.12032669696253162,"224":0.03848652055825955,"225":-0.12533232653688015,"226":-0.12728330425477707,"227":0.07152968108899162,"228":0.010764075565667913,"229":-0.16507643576322964,"230":-0.06070641904225625,"231":0.10785823233011937,"232":-0.09892395430762789,"233":-0.02346510401873723,"234":0.0774922245958628,"235":-0.07492344665475792,"236":-0.20851692672696015,"237":-0.06423028629403693,"238":-0.030170471530168604,"239":-0.04591610856222964,"240":-0.019883281189110136,"241":-0.09441514226201524,"242":-0.06733073398511008,"243":-0.17367633721391293,"244":0.016892988908011018,"245":-0.08247564579721302,"246":0.03224491632340424,"247":-0.0018513017052976437,"248":-0.15273043320733967,"249":-0.1452409214555779,"250":0.024559089357624984,"251":-0.18677973410224963,"252":0.076666684800649,"253":-0.12764127582245355,"254":-0.09217966654456058,"255":0.022439664575167686,"256":0.1499037130616624,"257":-0.055446819371928566,"258":-0.04613379828259143,"259":-0.17219474743896937,"260":-0.014844708553213175,"261":0.10589817943397876,"262":-0.04451421662855171,"263":0.020140070032512274,"264":-0.07364955676285524,"265":-0.15089857848676974,"266":-0.05327170896504904,"267":0.04482695885327383,"268":0.1442379233010459,"269":-0.11920088839578202,"270":-0.12814243524043747,"271":-0.022991814485834185,"272":0.10272932835115872,"273":0.056555165118477094,"274":-0.04503577817274116,"275":-0.06703986907356614,"276":0.030356231825470037,"277":0.1225939405161375,"278":-0.012886816995966272,"279":-0.056102807255328624,"280":-0.1415516028575513,"281":-0.05706407888165845,"282":-0.12130301370978107,"283":0.030501320336796263,"284":0.08845810490258496,"285":-0.19290142143061664,"286":-0.1902947047828236,"287":-0.06636525451000955,"288":-0.02416683012935857,"289":-0.06303455268249236,"290":-0.15904178888405118,"291":-0.08430596681900253,"292":-0.07263130256961589,"293":-0.14905324207071854,"294":-0.019477064817853,"295":-0.17273734859880369,"296":-0.12885725074261833,"297":-0.11035653009540453,"298":-0.1877330971376958,"299":-0.22102803535296034,"300":-0.04966003873860905,"301":-0.11086147918819116,"302":-0.14863069515133304,"303":-0.13549036571844725,"304":0.00394120155459567,"305":-0.08822843070505951,"306":-0.17541308978506776,"307":-0.16439660101788225,"308":-0.08781572194225659,"309":-0.04127652500780873,"310":-0.11431081250687758,"311":-0.10461995548995988,"312":-0.15095952349606012,"313":-0.19516814527487078,"314":-0.025681607034321808,"315":-0.12393394534334949,"316":-0.059478661984979836,"317":-0.09306976276754649,"318":-0.16112418227813202,"319":-0.115192809093262,"320":0.035160455098332974,"321":-0.07436141896620731,"322":-0.10623412474213051,"323":-0.07099361320894731,"324":-0.05392541972524269,"325":0.0030574375474043164,"326":-0.06909572674206865,"327":0.13557124564595474,"328":-0.058828887709379704,"329":0.04624956074007755,"330":0.12024410083300556,"331":-0.08084237330075582,"332":0.09249189186574934,"333":-0.11863151862693005,"334":0.006106394229150913,"335":-0.01336274857380446,"336":0.05057715105065954,"337":-0.08380359114180513,"338":-0.008400767269379864,"339":-0.01666072916940828,"340":-0.037843254718092266,"341":-0.004837840036875788,"342":-0.036799140703114776,"343":0.09964865898823418,"344":-0.09602029392976287,"345":-0.035410590598540716,"346":0.08440811647810668,"347":-0.05046124175480107,"348":-0.05007501538146241,"349":-0.08260271172371016,"350":-0.17709951316797654,"351":0.007013601407333524,"352":0.024609346541432188,"353":-0.09157824695165992,"354":-0.053426256672933305,"355":-0.06565763635626368,"356":0.04856177761841667,"357":0.0799151908959196,"358":-0.09294399546750771,"359":-0.14561913805110166,"360":-0.07325285839828921,"361":-0.07752498158683539,"362":-0.10382909172858953,"363":0.031652623722269416,"364":0.07537380677779094,"365":-0.1845619633346871,"366":-0.037553908005331156,"367":0.0032008085135650155,"368":-0.1294324726899284,"369":-0.19789763768606541,"370":0.08531084184704268,"371":-0.1666377223961053,"372":-0.06196786663008762,"373":-0.10488798498695556,"374":-0.07591513537802602,"375":-0.0395443557707539,"376":-0.13099505587154434,"377":-0.09540155871237636,"378":-0.19989761269792483,"379":-0.16849063102732129,"380":-0.08577270578824078,"381":-0.15303342478378917,"382":-0.1965224270909287,"383":-0.021217701939106992,"384":-0.03965562069616863,"385":-0.15168738140962423,"386":-0.09770638005133182,"387":-0.059678829198744385,"388":0.00036957493813681314,"389":-0.06280933193650405,"390":-0.08992699084643183,"391":-0.11975838710582572,"392":-0.1536376667294274,"393":-0.07913403738731804,"394":-0.07890325418091787,"395":-0.09672720617685922,"396":-0.15236113713314417,"397":-0.11092353655277547,"398":-0.034716762932398594,"399":-0.04110134369450961}},{"sx":5,"sy":5,"depth":16,"w":{"0":-0.10036627532348279,"1":-0.039173995453939285,"2":-0.021966900394515793,"3":0.07000489759302111,"4":0.022133954086451885,"5":-0.0027059747869994134,"6":0.027915691629554453,"7":-0.0558707796528244,"8":-0.0816836945849159,"9":-0.03821088277024663,"10":-0.02464246724501867,"11":0.08550232250478093,"12":-0.04743599812518062,"13":-0.05511678281281699,"14":0.056783268012127276,"15":-0.01527500919161564,"16":-0.08436922287166543,"17":-0.03481803098484535,"18":0.0307861478143861,"19":-0.04021075389496307,"20":-0.05178938319759325,"21":0.03201866573603496,"22":-0.10024308613764592,"23":0.025240410335827725,"24":-0.05178717473569092,"25":-0.009122915314526706,"26":-0.0403480600810194,"27":0.0033866108404611082,"28":0.042399740419690905,"29":-0.12588227276266972,"30":-0.0713145260920114,"31":-0.06975681879041137,"32":0.025376616344439704,"33":-0.07686300452982878,"34":-0.029301834745268245,"35":0.03024431441779939,"36":-0.038438941474504135,"37":-0.04578153473489013,"38":-0.006627326453518378,"39":-0.041546688009323145,"40":-0.016662581151722956,"41":0.009604705874975443,"42":-0.03411838173887062,"43":0.032107320355072994,"44":-0.061460833216071695,"45":-0.055244048666364495,"46":-0.004641629183372746,"47":-0.13692421890771872,"48":-0.09010990355979927,"49":0.0061717439974031466,"50":-0.058139466771482906,"51":0.0011780300711380007,"52":-0.0493250941213179,"53":-0.06673462701648893,"54":0.013639228844002864,"55":-0.05652316668203814,"56":-0.003388278548556525,"57":0.01190637289840913,"58":-0.03515698851784163,"59":0.13795565707270818,"60":-0.09741292524245808,"61":-0.06330002913847071,"62":0.03428313443751252,"63":0.07330692157112156,"64":-0.009565602777672122,"65":-0.03811170500283219,"66":0.0035297224582018353,"67":0.03979525278026608,"68":-0.016859393104560784,"69":-0.031047622014062744,"70":0.054843426544229655,"71":-0.03432047407715721,"72":-0.07330759478555983,"73":0.03995281879188409,"74":-0.051725803175270264,"75":0.03427571825582836,"76":-0.05893801577215001,"77":-0.009444305918605348,"78":-0.0027919264381480453,"79":0.020164550249755296,"80":-0.03335701458222042,"81":-0.1049689411306868,"82":-0.07924702681890383,"83":-0.03407294261657597,"84":-0.09944444545867562,"85":0.004240098450346767,"86":-0.01427398923525874,"87":0.000409438154827835,"88":-0.08028438149991626,"89":-0.05839030524940635,"90":0.006185458800472585,"91":-0.07044557335485176,"92":-0.0007590457979183606,"93":-0.016491937076215074,"94":0.053985310784627684,"95":0.0024132248559420597,"96":-0.13614143790357805,"97":-0.041679614786760424,"98":0.013111343078674184,"99":0.09936850955128779,"100":-0.05845016359373176,"101":-0.01436499996893781,"102":0.04750872672613191,"103":0.052509196013291834,"104":-0.086338312466124,"105":-0.1256046998431795,"106":0.011955429818778344,"107":-0.03239656520322931,"108":-0.05281617026909176,"109":0.03178912001365717,"110":-0.028353740084718988,"111":-0.04859589988060007,"112":-0.02010016256963561,"113":-0.07665450824987362,"114":0.05929668899248941,"115":-0.010409999675070522,"116":-0.10651153486028855,"117":-0.013546803454725921,"118":0.027710095543088405,"119":-0.03274083436042468,"120":-0.07580920471231178,"121":-0.0909084344382304,"122":0.02595626700760988,"123":-0.011357201037366788,"124":0.04734090210572307,"125":0.0055002880613289175,"126":-0.052457748578059474,"127":-0.012439489566238159,"128":-0.03374111098877954,"129":-0.014016960524334472,"130":-0.03191450019528835,"131":-0.017255916481052267,"132":-0.056830774109576744,"133":-0.017196367451878747,"134":-0.06217090921907984,"135":-0.0884797462331176,"136":-0.024056501685851245,"137":0.0594109387841483,"138":-0.0406829313037822,"139":0.043308574290708564,"140":-0.06439518032679895,"141":-0.05139753877563139,"142":0.036979343508288263,"143":0.046023764616664936,"144":-0.024867416041427833,"145":-0.06516271690057131,"146":0.051019500039533754,"147":-0.08195747718638059,"148":-0.09416808443024267,"149":-0.026486351332239925,"150":-0.04761114337985768,"151":-0.07700489559707867,"152":-0.03496792312564625,"153":-0.038083726367191546,"154":0.01052805817092204,"155":0.025046345737079246,"156":0.02530131621060616,"157":-0.12043965396042508,"158":-0.15100830687615935,"159":0.04676312181835931,"160":-0.027344806328960376,"161":0.064799625832266,"162":0.017397697623844233,"163":-0.039487554444332856,"164":0.007768039811631252,"165":-0.02372431731979334,"166":-0.07338070360242215,"167":-0.007311603791556145,"168":-0.1122651429105011,"169":-0.0880714931326061,"170":-0.027566502004599838,"171":-0.04998929391743861,"172":-0.0035197650862682055,"173":-0.07893079325445161,"174":-0.002434089512916779,"175":-0.13260957848491678,"176":-0.1338688629835041,"177":-0.06320565420902267,"178":0.008315230382874014,"179":-0.1311704083171322,"180":0.013276121686725838,"181":0.013629826709774737,"182":0.016236974789833707,"183":-0.07517990647168465,"184":-0.04323092230297328,"185":0.053627422614309056,"186":-0.10422914750286254,"187":0.020991426992161888,"188":-0.0655396019046261,"189":-0.034560690638268284,"190":-0.08274774875121328,"191":-0.03654831692379001,"192":0.010102249855512769,"193":0.03862329479318771,"194":-0.03383130785041655,"195":-0.014045206273122116,"196":-0.03450118003521569,"197":-0.021137353588564563,"198":-0.07316668655758035,"199":-0.0936888082605562,"200":-0.05424280593441364,"201":0.00855194292590233,"202":-0.0324224625462887,"203":-0.005060445068276014,"204":-0.059864784544066386,"205":-0.13081937114702585,"206":0.013465836206246183,"207":-0.016719809618383992,"208":0.07791604762209425,"209":0.010513786601360856,"210":0.024944277936696648,"211":-0.10687858532970262,"212":-0.11920791231195133,"213":-0.042138891107002335,"214":0.05796490171408198,"215":-0.06735494361823405,"216":-0.07368252215782034,"217":-0.044100278628919735,"218":-0.039896939759235694,"219":0.022093457973975782,"220":-0.09784692181208589,"221":0.05399993271314191,"222":-0.017623416619965356,"223":-0.04357682632071641,"224":0.005994183687513405,"225":0.06351419214603614,"226":0.014993067160283846,"227":-0.04135609590930886,"228":-0.02875653901749497,"229":-0.02192294669392834,"230":-0.01826862977082215,"231":-0.0482541825041186,"232":-0.06368673336282381,"233":0.03204341730858897,"234":0.0006572252069934628,"235":-0.02687911645910527,"236":0.03956856037336453,"237":-0.030255999769454596,"238":-0.0576038631316031,"239":-0.06468522170242572,"240":-0.05559694476399009,"241":-0.04876423857772471,"242":-0.028564615451224802,"243":0.00553317135469722,"244":0.0008350293279816333,"245":0.059308927787093506,"246":0.009358762523087183,"247":-0.04191215347750455,"248":-0.10250068133810894,"249":-0.09207867525126129,"250":0.08504589413380834,"251":0.07345955575314565,"252":-0.0902986707893841,"253":-0.09832612099197646,"254":-0.01770534970630713,"255":0.015998351912027437,"256":0.006768707801903625,"257":-0.11890182851925046,"258":0.06708743686659698,"259":0.03542259340748931,"260":-0.14818525490762025,"261":-0.05929752050548785,"262":-0.038922555131096846,"263":0.013798322990833339,"264":-0.015409173342879303,"265":0.06381341186965073,"266":-0.01202745591537549,"267":0.06907782447455744,"268":-0.022526007326327754,"269":-0.05847812495212407,"270":-0.019830636710477443,"271":-0.10912552061114947,"272":-0.01386273490264759,"273":-0.04762976381218733,"274":-0.017994647114995776,"275":-0.0027174064297360717,"276":-0.06705303302213501,"277":-0.046276097242628614,"278":0.010875951337617814,"279":-0.005841488245858757,"280":-0.05441460715829415,"281":-0.0010106043253596529,"282":-0.04266457060082518,"283":-0.049816657276467106,"284":-0.0733340280911056,"285":-0.03525228426831165,"286":0.02687296252048713,"287":0.005534100597111517,"288":-0.007892427336732646,"289":-0.03201093715721983,"290":0.008469206106241333,"291":-0.028814281481121043,"292":-0.1094150303994207,"293":0.04450227158790086,"294":-0.06013346456425577,"295":0.00707688838304219,"296":-0.03292915004454017,"297":-0.03427596575043407,"298":0.024942627678871156,"299":-0.020451977269303742,"300":-0.0564027699002342,"301":0.008135548727359092,"302":-0.05184995050371952,"303":-0.013907329563201426,"304":0.029662261927469076,"305":0.004678719174245557,"306":0.033272279471337304,"307":-0.022162632894191542,"308":-0.0027467656151375585,"309":0.02762981743793803,"310":-0.07172451752194212,"311":0.011913742384838062,"312":0.04537306119107157,"313":-0.03665297258990495,"314":0.08421867805119486,"315":0.06184002650553396,"316":0.021885570447133313,"317":-0.06380254056383372,"318":-0.03317725953741147,"319":-0.01613132249719917,"320":-0.00010832612531746625,"321":-0.060222875830579614,"322":-0.0618933747594965,"323":0.07982014433169908,"324":-0.16272775543017204,"325":0.053917087254633275,"326":-0.01568201628075259,"327":-0.040334003302228194,"328":-0.047183693021215556,"329":0.025744550585343706,"330":0.010497158183859252,"331":-0.1042073405214927,"332":-0.10325564365222824,"333":-0.014372599393367881,"334":-0.03851717463052723,"335":-0.09650106443012901,"336":0.015852378914318732,"337":-0.026574840765092297,"338":0.059324693505253843,"339":-0.059661613844231035,"340":0.00902150159536576,"341":-0.06642538556258992,"342":-0.034925854055392926,"343":-0.008940364100981835,"344":0.012398638420941724,"345":-0.03194683831614193,"346":-0.014478468571623979,"347":-0.028408700888905753,"348":-0.10959045646007033,"349":0.0567653095813648,"350":-0.0473906410908457,"351":-0.03658863733216719,"352":-0.0540431163737388,"353":0.09697247589911463,"354":-0.038483597445124806,"355":-0.12200867335585686,"356":-0.03452755258244301,"357":-0.051073088744685816,"358":-0.012437787519496311,"359":-0.005009532690841604,"360":-0.06353366166038818,"361":-0.07043841481465256,"362":-0.047454160506869805,"363":0.02984399865913489,"364":-0.058022415949445905,"365":-0.06448476139107756,"366":0.0074145497710260575,"367":-0.055520243051452735,"368":-0.006134191142944213,"369":-0.021528948868462818,"370":0.08706796178554524,"371":-0.012574248281978596,"372":0.019752185300329708,"373":0.025703212820559422,"374":-0.00921511329913945,"375":-0.07239150070418822,"376":-0.048791535582866884,"377":-0.07199186836349288,"378":-0.041370006221065854,"379":-0.020724481888215313,"380":0.02899918393660211,"381":-0.09049233326585716,"382":-0.035927839046736104,"383":0.014065224371237623,"384":-0.056472912917016664,"385":-0.0436057094121118,"386":0.010853484492451177,"387":0.007031693817834139,"388":-0.10969781420707764,"389":-0.006791002734233163,"390":-0.001593745635671729,"391":-0.04348084622669756,"392":-0.09949254928859554,"393":-0.06288248552282362,"394":-0.08416681065447791,"395":0.018034169757353356,"396":0.07498501641823296,"397":0.005597861129120661,"398":-0.014419484983201848,"399":0.029132120451541964}},{"sx":5,"sy":5,"depth":16,"w":{"0":-0.08051491574702024,"1":-0.00695657396650108,"2":0.0499284247228728,"3":-0.015572235241183311,"4":-0.06573026263103439,"5":0.013064339585693993,"6":0.003875016333941524,"7":0.0023288015490320023,"8":0.009701340164255343,"9":0.013304864600614894,"10":-0.09901559290172329,"11":-0.014931930548105066,"12":0.06616276835707374,"13":-0.046093645160252196,"14":-0.09851451289563132,"15":0.024216386823826958,"16":-0.09784318096229247,"17":0.09696254539114357,"18":0.01055435082874012,"19":-0.041349407145760055,"20":0.02599273629738509,"21":0.032663879111967026,"22":0.05950395613011988,"23":0.056722393670418134,"24":-0.03768994326093195,"25":0.002364224329685513,"26":-0.08291096619016691,"27":-0.003770241524876314,"28":-0.0025740965301152222,"29":0.10427343624433522,"30":-0.07058558692931496,"31":-0.01840273553374777,"32":-0.02551927189056256,"33":0.0855686977101116,"34":0.10114173793518869,"35":0.02906625252604826,"36":-0.07143424892814546,"37":-0.029310299018706406,"38":-0.027507065799146177,"39":-0.053927049326174446,"40":0.12273912918397971,"41":-0.06860039199873184,"42":-0.014805153885301493,"43":-0.009904925483252376,"44":0.004774538466569096,"45":0.014991993251011092,"46":0.046238225308651515,"47":0.026728876926089152,"48":0.029936408159185596,"49":-0.03686537162688354,"50":0.040986295272903386,"51":-0.08808051250638954,"52":-0.07141472444281423,"53":-0.0583533553981665,"54":-0.024134929037850524,"55":0.07101236357217178,"56":-0.0018876476745318493,"57":-0.048538685330242595,"58":-0.04375418276762256,"59":-0.09859174191098428,"60":-0.009034731382611596,"61":0.0055795128951942885,"62":0.09038944665586351,"63":0.0657136460251604,"64":-0.02151464491793485,"65":-0.07080719156535778,"66":0.08290875419459035,"67":0.09198769092124247,"68":-0.17026639911779,"69":0.0020426960555317676,"70":0.028167987378571145,"71":0.025108029991815103,"72":-0.05927249291448812,"73":0.07722957072394712,"74":0.03378580183819884,"75":-0.018071009151012445,"76":-0.012410801525511685,"77":0.023177735419561092,"78":0.029366218689944393,"79":0.1640247302853495,"80":-0.012931773922712124,"81":0.012072688476130532,"82":-0.10682234290116052,"83":-0.059555032463946195,"84":0.0035208289312568847,"85":0.00034179181763152307,"86":-0.06536700954593462,"87":-0.04107425619052999,"88":-0.09571803034267674,"89":-0.11357101170496599,"90":-0.053584792208444185,"91":-0.038107846845675517,"92":-0.115473418561648,"93":0.04172850018746547,"94":-0.1138496698762568,"95":0.13268870688062026,"96":0.01607602508380155,"97":0.0015234789448876254,"98":-0.07995457782604763,"99":-0.010741561967532539,"100":-0.0927486969084612,"101":-0.02811576456830059,"102":0.06862891963602573,"103":-0.1214859151410359,"104":0.008246753797298712,"105":-0.016377964461001784,"106":-0.1287112121695182,"107":-0.19518290832374816,"108":-0.10163058846289784,"109":-0.09487680114084529,"110":-0.019317921757035197,"111":0.09617299451883958,"112":0.019301783636159052,"113":-0.046749553795755475,"114":0.01997154215775617,"115":0.03780094435859928,"116":-0.07666981973754859,"117":-0.04293897926211049,"118":0.007406266586698346,"119":-0.07735230000841185,"120":-0.06328137995322954,"121":0.04227198488949226,"122":-0.1582415961792463,"123":-0.08937576735390912,"124":-0.16782249929571144,"125":-0.01191153901717473,"126":0.014800144741947664,"127":0.05030245693742322,"128":-0.0940897910168995,"129":0.00391194792618626,"130":0.0444496412448638,"131":0.0030235929724406942,"132":-0.2080890307314979,"133":-0.05934739422231428,"134":-0.028162340308246256,"135":-0.019417952616483457,"136":-0.08854114621367039,"137":0.01756422133494495,"138":-0.0888604898205445,"139":-0.12875742606494697,"140":-0.12312964931632356,"141":0.021489028115446902,"142":-0.06859972938197488,"143":0.14011152450079906,"144":-0.040626680797339776,"145":-0.03468776933896419,"146":0.03964104210262477,